#ifndef REAL_WEIGHTS_H
#define REAL_WEIGHTS_H

// Auto-generated PyTorch to FPGA Quantized Weights
// Format: ap_fixed<16,6> (Scale Factor: 1024)

const float real_l1_weights[432] = {
    -0.2002, -0.03516, 0.2334, -0.5195, -0.04492, 0.5605, -0.3115, -0.0381, 0.336, -0.3047, -0.0166, 0.3867, -0.828, -0.0459, 0.7695, -0.412, 0.04395, 0.3926, -0.1816, -0.01855, 0.1436, -0.3223, 0.00879, 0.3438, -0.1973, 0.012695, 0.206, -0.1748, -0.11914, -0.2119, -0.1748, -0.1982, -0.2734, -0.2471, -0.2393, -0.3076, 0.1963, 0.1494, 0.291, 0.1465, 0.1455, 0.3027, 0.1611, 0.1592, 0.3428, -0.00293, -0.01953, -0.0957, 0.0332, 0.03027, -0.0537, 0.08887, 0.08105, -0.02246, 0.2031, 0.0381, -0.252, 0.5664, 0.01563, -0.573, 0.3438, -0.00879, -0.335, 0.292, 0.06445, -0.3193, 0.713, 0.03906, -0.8945, 0.4053, 0.05762, -0.3867, 0.1357, 0.03613, -0.2041, 0.3535, 0.0762, -0.412, 0.2354, 0.0293, -0.2461, -0.127, 0.3457, -0.2314, -0.3262, 0.7285, -0.4072, -0.1914, 0.4316, -0.2314, -0.2207, 0.51, -0.3154, -0.4863, 1.059, -0.545, -0.2988, 0.501, -0.2441, -0.1113, 0.1309, -0.01172, -0.2041, 0.2822, -0.0967, -0.1602, 0.2051, -0.04492, -0.000977, 0.03613, 0.1602, 0.02344, -0.000977, -0.0908, 0.1533, -0.07715, -0.33, -0.000977, 0.02051, 0.02051, -0.000977, 0.012695, -0.0332, -0.01367, -0.02051, -0.3428, -0.042, -0.00879, -0.0625, -0.01465, 0.04492, -0.006836, -0.03125, -0.012695, -0.1934, 0.209, 0.2305, 0.1855, 0.2441, 0.3662, 0.255, 0.1494, 0.1807, 0.1426, -0.2793, -0.254, -0.1904, -0.3105, -0.376, -0.255, -0.2217, -0.2266, -0.1504, 0.0547, 0.02344, 0.001953, 0.0635, 0.00879, -0.009766, 0.08203, 0.03906, 0.01172, -0.02344, -0.05078, 0.001953, -0.0332, -0.253, -0.042, 0.01074, -0.007812, 0.05273, 0.001953, -0.03027, 0.04102, -0.0381, -0.2715, -0.04688, -0.003906, -0.04492, -0.01758, 0.05078, -0.01465, 0.0371, -0.01172, -0.2236, -0.0371, 0.06055, -0.04785, 0.0781, 0.2012, 0.5938, 0.3652, -0.00586, -0.012695, 0.004883, -0.2197, -0.584, -0.3125, 0.2969, 0.83, 0.545, -0.02637, -0.1504, -0.0996, -0.2168, -0.83, -0.3652, 0.1777, 0.288, 0.2783, 0.006836, -0.03516, -0.00293, -0.1523, -0.3672, -0.2256, 0.1465, -0.338, 0.1719, 0.3584, -0.698, 0.3457, 0.2246, -0.3896, 0.1777, 0.2793, -0.5645, 0.25, 0.5996, -1.074, 0.4883, 0.3555, -0.5645, 0.2188, 0.07227, -0.1621, 0.0918, 0.1885, -0.372, 0.1602, 0.1494, -0.2139, 0.0781, -0.0869, -0.01172, 0.0742, -0.0537, -0.05664, 0.0742, 0.03613, 0.04004, 0.1943, -0.0762, -0.2148, -0.3242, -0.11523, -0.2617, -0.3896, -0.1426, -0.2393, -0.4297, 0.1611, 0.2441, 0.2744, 0.1582, 0.3115, 0.3223, 0.0957, 0.1885, 0.2178, -0.248, -0.5312, -0.338, -0.04492, -0.0908, 0.02539, 0.2695, 0.5996, 0.377, -0.2393, -0.7656, -0.37, -0.03125, -0.1416, -0.01465, 0.3389, 0.7266, 0.4824, -0.1279, -0.3906, -0.1904, -0.02441, -0.04492, 0.01465, 0.1377, 0.378, 0.2119, 0.2002, 0.3564, 0.207, -0.3408, -0.6855, -0.4238, 0.1357, 0.3096, 0.2285, 0.2627, 0.456, 0.2764, -0.4434, -0.9854, -0.675, 0.2432, 0.504, 0.3623, 0.08594, 0.2129, 0.1562, -0.1855, -0.3623, -0.2559, 0.05957, 0.168, 0.1006, 0.0713, 0.006836, 0.11816, 0.0674, -0.03906, 0.0293, 0.09766, 0.08594, 0.1533, 0.0459, -0.03125, -0.009766, -0.02539, 0.05762, 0.03516, 0.05664, -0.04688, 0.0635, -0.0947, 0.06836, -0.0879, -0.05566, 0.3574, 0.07324, -0.1045, 0.05762, -0.1338, 0.0742, 0.05078, -0.2715, 0.01465, 0.042, -0.11523, -0.2461, -0.03027, 0.25, 0.4814, 0.1611, -0.414, 0.05664, -0.02832, -0.1045, -0.3535, -0.1836, 0.3486, 0.1299, 0.0586, -0.2129, 0.009766, 0.03027, -0.1045, -0.1348, -0.04492, 0.0625, -0.1338, -0.3965, -0.2051, 0.3105, 0.7217, 0.4707, -0.1445, -0.3643, -0.2588, -0.2637, -0.545, -0.333, 0.4648, 1.064, 0.6826, -0.2051, -0.541, -0.3438, -0.0996, -0.2168, -0.0947, 0.1934, 0.3486, 0.2461, -0.0674, -0.2021, -0.1211, -0.1328, -0.0625, 0.0654, -0.084, -0.02344, 0.09375, 0.01172, 0.07324, 0.2461, 0.3086, 0.166, 0.1465, 0.294, 0.1953, 0.11523, 0.2412, 0.1162, -0.02539, -0.1953, -0.11426, -0.1963, -0.2227, -0.1875, -0.2168, -0.25, -0.1865, -0.2441
};

const float real_l1_bias[16] = {
    2.965, 3.162, 3.105, 2.826, 5.418, 2.758, 6.87, 3.021, 2.826, 2.908, 2.86, 2.61, 6.625, 1.313, 2.963, 2.6
};

#endif
