#ifndef REAL_BLOCK_WEIGHTS_H
#define REAL_BLOCK_WEIGHTS_H

const float real_l1_weights[4608] = {
    -0.00293, -0.06934, 0.0293, 0.0713, 0.2832, 0.03027, -0.06934, -0.2412, -0.08887, 0.03516, 0.05176, -0.02344, -0.07324, -0.01074, 0.04688, 0.00293, -0.00879, -0.03125, -0.0, 0.05078, -0.01074, -0.0635, -0.2646, -0.06934, 0.0547, 0.2119, 0.07227, -0.00586, 0.0332, -0.01074, -0.02832, -0.03125, 0.0537, 0.01172, 0.00879, -0.0781, -0.09766, -0.0918, -0.02051, 0.2666, 0.2207, -0.04785, -0.1758, -0.0703, 0.02734, 0.01074, -0.02051, -0.03223, 0.0, 0.06445, 0.0459, -0.02246, -0.05176, -0.012695, -0.04395, -0.001953, 0.0625, 0.0781, -0.10547, -0.2783, -0.06836, 0.1543, 0.1895, 0.01465, -0.09863, -0.02344, 0.1709, 0.3145, 0.04297, -0.1455, -0.333, -0.01953, -0.001953, -0.01074, 0.01855, 0.03516, 0.01563, -0.05762, -0.03418, -0.02734, 0.04102, -0.003906, -0.00293, -0.003906, -0.003906, 0.00293, 0.03516, 0.000977, -0.02148, -0.01953, -0.001953, 0.0879, -0.03906, -0.1367, -0.3037, 0.003906, 0.03418, 0.2607, -0.00586, -0.01758, 0.12305, 0.05273, 0.06836, -0.2637, -0.25, -0.1172, 0.084, 0.1729, 0.03418, -0.02051, -0.04688, -0.05957, 0.0586, 0.126, 0.0459, -0.042, -0.1045, 0.05078, -0.1211, 0.04102, -0.125, 0.0928, 0.206, 0.1006, 0.0947, -0.3154, 0.03027, -0.0586, -0.00879, -0.03613, 0.1904, 0.1816, 0.084, 0.0791, -0.0537, 0.004883, 0.0332, -0.03027, -0.02832, 0.009766, 0.0547, 0.001953, -0.05176, -0.001953, 0.0713, -0.127, 0.05664, -0.1914, 0.2754, -0.03223, 0.0879, -0.1416, -0.01465, 0.01172, -0.09375, 0.04297, -0.0625, 0.0459, 0.0537, 0.02051, 0.07227, -0.1074, -0.08105, 0.1094, -0.04492, 0.1641, -0.2832, 0.01953, -0.06445, 0.1455, 0.01758, 0.009766, -0.127, 0.01855, 0.04297, 0.10547, -0.0957, -0.0625, 0.01367, 0.0703, 0.1084, -0.10645, -0.000977, -0.042, 0.04395, -0.01465, -0.04688, 0.01465, 0.01074, -0.01758, 0.05176, -0.03613, 0.05762, -0.0654, -0.01953, -0.01953, -0.02734, 0.05664, -0.0996, 0.1436, -0.01465, 0.0879, -0.06445, -0.01758, 0.03223, -0.0762, 0.0752, -0.02637, 0.10645, -0.06152, 0.1729, -0.2637, 0.0752, -0.0547, 0.08203, -0.03418, -0.04102, 0.11426, -0.0293, -0.02539, -0.1113, 0.0801, 0.0547, 0.00293, -0.07715, 0.009766, -0.03418, 0.01074, -0.02051, -0.04004, 0.05664, 0.003906, 0.0674, -0.06445, 0.02637, -0.1094, 0.07324, -0.165, 0.2559, -0.0713, 0.08105, -0.1338, 0.07715, -0.04688, 0.012695, 0.01563, 0.09766, -0.11426, 0.02637, -0.05176, 0.0908, -0.06445, 0.0879, -0.09766, 0.001953, -0.0625, 0.1455, -0.02734, -0.0293, 0.02637, 0.01563, 0.02734, 0.0459, -0.05664, 0.01758, -0.583, 0.4297, -0.0332, 0.4785, -0.2559, 0.02246, -0.00293, -0.02734, -0.10645, 0.1338, -0.03906, 0.04492, -0.0947, 0.0586, 0.02344, 0.004883, -0.03027, 0.02832, -0.04004, 0.02051, -0.01172, -0.01855, 0.01367, 0.02441, -0.00879, -0.01563, -0.01172, -0.01758, 0.006836, -0.01953, -0.006836, 0.00879, 0.1494, 0.1484, -0.2598, 0.2578, 0.1309, -0.5146, 0.1797, 0.1641, -0.2754, -0.02148, 0.01172, 0.01172, -0.000977, 0.01758, 0.02051, 0.012695, -0.001953, 0.01074, 0.00586, 0.009766, -0.001953, 0.006836, 0.0166, 0.012695, 0.000977, 0.01172, 0.00586, -0.02832, 0.01758, 0.0332, -0.03223, -0.00879, 0.01855, -0.006836, -0.007812, 0.01074, -0.2988, 0.0625, 0.2197, -0.584, 0.08105, 0.51, -0.3506, 0.05566, 0.287, 0.01367, 0.02832, 0.0166, 0.007812, 0.004883, -0.0166, -0.000977, 0.012695, 0.00586, 0.00293, 0.003906, -0.00586, -0.006836, 0.02246, 0.004883, -0.00879, 0.012695, -0.012695, 0.006836, 0.0, -0.004883, -0.000977, 0.01563, 0.0166, -0.001953, 0.000977, 0.01855, -0.1475, -0.0547, 0.2002, -0.11035, -0.126, 0.2197, -0.10156, -0.0781, 0.1621, 0.006836, 0.00586, 0.000977, 0.001953, -0.000977, -0.000977, 0.003906, -0.01563, -0.01367, 0.004883, 0.01367, 0.004883, 0.001953, -0.0, 0.001953, 0.00293, -0.00586, -0.001953, 0.01074, -0.00879, 0.004883, 0.02539, 0.01172, 0.0713, 0.0, 0.000977, 0.04297, 0.06836, -0.05078, -0.042, 0.1494, -0.0586, -0.08105, 0.09375, -0.04102, -0.04688, 0.01172, 0.00879, 0.00879, 0.01074, 0.01758, 0.004883, 0.007812, 0.00586, -0.01074, 0.1738, -0.09766, -0.1035, 0.2021, -0.1396, -0.03418, 0.1777, -0.05078, -0.1211, -0.2646, -0.2666, -0.0293, -0.1611, -0.1074, 0.02148, 0.01465, 0.1123, 0.08594, -0.03516, 0.06445, -0.04004, -0.06152, 0.05762, -0.07227, 0.02539, 0.07227, -0.01172, -0.2705, -0.248, -0.02637, -0.1455, -0.09863, 0.00586, 0.04883, 0.1084, 0.0654, -0.33, -0.332, -0.02441, -0.254, -0.1582, -0.012695, -0.007812, 0.0381, 0.0869, -0.02441, -0.0498, 0.02344, 0.01074, 0.03223, 0.03516, -0.000977, -0.01172, -0.07324, -0.003906, -0.0293, -0.000977, 0.02539, -0.02344, -0.01563, 0.007812, -0.0635, 0.05078, -0.04688, -0.02344, -0.0371, -0.02051, 0.02051, 0.01758, -0.03418, 0.001953, -0.003906, 0.0635, 0.06055, -0.01953, 0.01465, 0.012695, -0.007812, -0.0293, 0.00586, -0.004883, -0.2559, -0.2734, -0.03516, -0.2295, -0.1494, 0.04785, 0.01172, 0.0537, 0.07324, -0.01367, -0.01953, 0.006836, -0.0, -0.009766, -0.01367, -0.01074, -0.03125, 0.01953, 0.04102, 0.06152, 0.01074, 0.05762, 0.02637, 0.009766, 0.03418, -0.02539, -0.003906, 0.04297, 0.03906, 0.03516, 0.06836, 0.0498, 0.04102, 0.0166, 0.01855, 0.012695, -0.05957, -0.11035, -0.02148, -0.03223, -0.03906, 0.0947, 0.04004, 0.0537, 0.1289, 0.01367, -0.1211, -0.124, 0.1904, 0.01855, 0.02246, 0.127, 0.11523, 0.01953, 0.084, 0.06934, 0.03516, 0.0586, 0.0713, 0.03223, 0.03418, 0.0166, 0.02832, 0.0459, -0.02051, -0.0293, 0.02344, -0.02051, -0.01074, 0.01074, -0.02441, 0.02539, -0.0654, 0.05664, -0.03613, 0.1709, -0.3936, 0.2451, -0.02246, 0.1885, -0.1543, 0.0332, -0.07324, 0.0166, 0.0586, 0.01074, -0.05664, -0.08203, 0.09766, -0.01172, 0.084, -0.0625, 0.05078, -0.1504, 0.3145, -0.2656, 0.02051, -0.1729, 0.2041, 0.042, -0.1094, 0.0635, -0.09375, 0.09863, 0.012695, -0.03613, 0.1133, -0.0762, -0.05957, 0.1387, -0.07227, -0.08203, 0.0879, 0.01855, 0.1084, -0.1465, 0.02148, 0.01855, -0.05566, 0.01563, 0.05078, -0.01563, -0.0293, -0.0703, 0.0957, -0.02344, -0.03516, 0.1416, -0.1328, -0.05273, -0.006836, 0.09863, 0.1123, -0.1914, 0.0664, -0.05957, 0.083, -0.01367, 0.1348, -0.3496, 0.2295, -0.01367, 0.09863, -0.08105, -0.06836, 0.12305, -0.11523, 0.0625, -0.03125, 0.01855, 0.02051, -0.1084, 0.125, 0.003906, -0.00879, -0.00879, 0.02344, -0.01855, -0.01465, -0.04297, 0.0625, -0.01367, 0.084, -0.0762, 0.01465, -0.1416, 0.3613, -0.2129, -0.003906, -0.1201, 0.1289, -0.003906, 0.00293, -0.006836, -0.0742, 0.05176, -0.00293, 0.05762, -0.10547, 0.04395, 0.01953, -0.0781, 0.05566, 0.02832, 0.01172, 0.012695, -0.0664, 0.1475, -0.0713, 0.0674, -0.004883, -0.0459, -0.125, -0.009766, 0.2285, 0.04688, 0.0703, -0.1641, -0.02539, 0.00293, 0.000977, 0.05664, -0.0674, 0.01074, -0.05273, 0.05078, -0.009766, 0.0166, -0.0498, 0.01563, 0.05566, 0.01367, -0.06152, -0.0742, 0.06836, 0.00293, -0.02148, -0.1035, -0.1406, -0.01758, 0.042, 0.1084, 0.04688, 0.05273, -0.0, 0.0791, 0.0957, 0.006836, -0.1035, -0.1523, -0.10645, 0.02832, 0.0781, 0.0703, 0.01465, 0.05176, 0.126, 0.03906, 0.03125, -0.09375, -0.06445, -0.1113, -0.03027, 0.01367, 0.00879, -0.01563, 0.00586, -0.001953, -0.03125, -0.0166, -0.00293, 0.007812, -0.07324, 0.08496, 0.0654, 0.168, 0.02441, -0.08984, -0.1006, -0.0625, -0.00586, 0.04102, 0.03516, -0.001953, -0.0586, -0.083, -0.07227, 0.000977, 0.05176, 0.07324, -0.1709, -0.2012, -0.1172, 0.168, 0.3809, 0.2842, -0.04688, -0.1523, -0.1748, -0.0791, 0.11914, 0.1611, 0.06152, 0.06934, -0.1885, -0.1123, -0.1211, 0.04102, -0.01465, -0.01563, -0.001953, 0.01758, 0.007812, 0.01465, 0.006836, -0.02539, -0.0293, 0.001953, 0.02637, 0.02148, -0.01074, -0.02441, -0.0928, 0.007812, 0.0166, 0.03223, 0.03613, -0.09766, -0.1846, -0.11816, -0.03125, 0.2266, 0.125, 0.1738, -0.08887, -0.042, -0.2217, -0.1328, 0.1123, 0.535, 0.3164, -0.04688, -0.2627, -0.0674, 0.1113, 0.1172, 0.02832, -0.1348, -0.1963, -0.1504, 0.05078, 0.09863, 0.05664, 0.05078, -0.0801, -0.1475, -0.02051, 0.1963, -0.0635, -0.00586, -0.1172, 0.1582, -0.0459, 0.1113, 0.0928, 0.0459, -0.2217, -0.01367, 0.03613, 0.1914, 0.01758, 0.0371, 0.04004, -0.01367, -0.05176, -0.0967, -0.01172, 0.02539, 0.04004, 0.02051, 0.02832, 0.08203, -0.1475, -0.1533, 0.1387, -0.02637, 0.0957, -0.166, 0.1807, -0.03125, 0.0371, -0.02148, 0.02051, -0.0967, 0.0781, 0.04297, -0.02246, -0.02246, -0.0, -0.1094, 0.1377, 0.1406, -0.1777, -0.000977, -0.0908, 0.2227, -0.1768, -0.01855, 0.08594, -0.10254, 0.08887, -0.2842, 0.1904, -0.05762, 0.1045, 0.02832, 0.1396, -0.1836, 0.06836, -0.03613, 0.1572, -0.0996, -0.01758, 0.01563, -0.02246, -0.007812, -0.001953, 0.000977, -0.006836, -0.00879, 0.012695, 0.0371, -0.05566, 0.006836, 0.02246, -0.083, 0.03613, -0.05273, 0.2129, -0.1553, -0.08105, 0.0547, 0.02734, -0.00586, 0.05664, -0.03125, -0.1455, 0.169, -0.02344, 0.0664, -0.2314, 0.1875, 0.01563, -0.1006, 0.0801, -0.1084, 0.2979, -0.255, 0.0332, 0.00586, 0.0332, 0.01953, -0.0293, -0.00293, -0.03125, 0.01074, 0.01074, 0.02246, -0.02344, 0.001953, 0.01855, -0.07324, 0.0537, 0.1797, -0.2246, 0.05566, -0.0703, 0.2227, -0.1631, -0.001953, -0.04883, 0.0381, -0.00586, 0.0664, -0.10156, -0.03125, 0.003906, 0.04688, -0.07227, 0.0967, -0.08496, 0.03125, -0.0781, 0.1074, 0.0498, 0.003906, 0.01953, 0.02051, 0.2012, -0.2168, 0.1943, -0.2275, 0.1631, -0.2617, 0.2637, -0.0908, -0.00293, 0.03223, -0.0166, -0.02734, -0.08105, 0.09375, 0.01074, 0.004883, -0.03516, -0.01465, -0.003906, 0.0166, 0.02441, -0.0459, 0.02832, 0.04004, -0.0459, -0.006836, 0.0537, -0.03027, 0.0752, 0.08984, -0.2568, 0.1748, 0.06934, -0.08984, 0.1484, 0.0547, -0.0586, 0.08203, 0.0635, -0.1172, 0.0908, 0.0537, -0.12305, -0.006836, -0.04883, 0.1045, -0.0879, -0.08984, 0.1855, -0.1729, -0.09375, 0.126, -0.126, -0.00586, 0.02441, 0.07227, 0.01758, 0.04004, 0.2041, -0.02441, 0.03906, 0.1865, -0.0928, 0.1885, -0.08984, -0.10254, 0.2715, -0.11523, -0.03516, 0.168, -0.08887, 0.02441, 0.02441, -0.02539, -0.007812, -0.0625, -0.0928, 0.04102, -0.02637, 0.0, -0.0586, 0.02246, -0.05762, 0.04297, 0.1982, 0.03906, -0.03223, 0.1367, -0.02344, -0.00879, -0.06445, -0.007812, -0.06152, -0.08496, -0.01367, -0.0547, 0.0674, 0.06445, 0.042, 0.10254, -0.03223, 0.06934, 0.2793, -0.01465, 0.03418, 0.1523, -0.007812, 0.05176, 0.01074, 0.01563, -0.04785, -0.125, -0.0459, 0.0371, -0.1133, 0.01172, -0.09375, -0.0371, 0.02148, -0.02051, -0.01953, 0.003906, 0.08203, -0.05957, -0.0381, -0.0332, -0.04492, -0.007812, 0.03906, -0.01074, 0.03906, 0.00293, 0.05957, 0.05176, 0.03418, -0.0713, 0.07715, 0.02539, -0.0586, 0.1387, 0.0713, 0.03125, 0.1709, -0.02344, -0.02539, 0.02637, 0.03516, 0.1279, 0.0996, 0.02148, 0.2041, 0.05566, -0.03418, -0.07324, -0.01172, -0.0537, -0.0166, 0.009766, 0.0381, 0.0371, 0.05176, -0.02637, 0.004883, 0.01074, 0.01953, 0.0381, 0.04492, -0.01758, -0.01172, 0.02832, 0.02148, -0.006836, -0.0166, 0.001953, -0.009766, -0.004883, -0.01563, -0.007812, 0.00879, -0.02148, -0.01855, 0.0371, 0.09375, -0.03223, -0.126, -0.01074, 0.02637, 0.03906, -0.012695, 0.01172, -0.006836, 0.00586, 0.01172, -0.00293, 0.01563, -0.000977, 0.000977, 0.001953, 0.004883, -0.003906, 0.003906, 0.012695, 0.00293, 0.004883, 0.007812, -0.000977, -0.02246, 0.01074, 0.02246, -0.0371, -0.01563, 0.000977, -0.0, -0.00586, -0.004883, 0.1416, -0.0371, -0.0752, 0.1035, -0.06445, -0.042, 0.0762, -0.04492, -0.0625, 0.03906, 0.03223, -0.00586, 0.04883, 0.007812, -0.0498, 0.0459, 0.01367, -0.03516, 0.01172, 0.00293, -0.012695, 0.01172, 0.02148, -0.02148, 0.001953, 0.012695, -0.02051, 0.004883, 0.0, -0.009766, -0.003906, 0.01367, 0.00586, -0.001953, 0.001953, 0.012695, 0.1963, 0.0762, -0.291, 0.4492, 0.1387, -0.6113, 0.255, 0.1455, -0.375, 0.0166, 0.00586, 0.000977, 0.01465, 0.004883, -0.00879, 0.00293, -0.00293, -0.02148, 0.00586, 0.01563, 0.00586, 0.006836, -0.00293, -0.003906, -0.000977, -0.00586, -0.004883, 0.007812, -0.01367, -0.001953, 0.04102, 0.00879, 0.042, 0.01855, 0.006836, 0.01563, 0.0625, -0.0537, -0.04102, 0.1328, -0.05273, -0.05176, 0.08984, -0.03613, -0.03223, 0.01367, 0.01172, 0.004883, 0.01367, 0.0166, 0.00293, -0.000977, 0.00586, -0.00586, -0.2744, 0.05176, 0.2119, -0.5645, 0.00586, 0.5273, -0.3037, 0.01074, 0.2998, 0.0498, -0.125, -0.0293, 0.0664, -0.1865, 0.03027, 0.02832, -0.04102, 0.03125, -0.0498, 0.0, -0.08105, -0.04395, 0.083, -0.02832, -0.0381, 0.1084, 0.04297, -0.0537, 0.11523, -0.00293, -0.04883, 0.206, -0.02539, 0.03223, 0.04688, -0.003906, -0.04492, -0.0654, -0.0, -0.03418, -0.1494, 0.0801, 0.003906, -0.07715, 0.02441, -0.0537, 0.0703, -0.01953, -0.1094, 0.04004, -0.03223, -0.02832, 0.006836, -0.00879, 0.02637, -0.0713, -0.007812, 0.0586, 0.0781, 0.10254, -0.007812, -0.009766, 0.006836, 0.06934, 0.1084, 0.05664, -0.0703, -0.1562, -0.1943, 0.02344, -0.04883, -0.11426, 0.06152, 0.03223, -0.04004, 0.1035, 0.1465, -0.03125, 0.03125, 0.02539, -0.07715, -0.01465, -0.02441, -0.04297, -0.02344, 0.0781, -0.1162, -0.001953, 0.0498, -0.04883, -0.0547, 0.00586, -0.0664, 0.06152, 0.1934, 0.04492, -0.0, 0.1328, -0.01758, 0.1328, 0.1299, 0.02344, 0.02148, 0.0371, -0.01758, -0.01758, -0.006836, -0.03027, 0.0752, 0.1348, 0.01758, 0.0537, -0.0332, -0.04688, 0.001953, -0.04004, -0.042, 0.07227, -0.09375, -0.03223, 0.1035, -0.1289, -0.03516, -0.01953, -0.207, -0.1328, 0.1924, -0.06836, -0.10645, 0.02441, -0.3066, -0.3076, -0.012695, -0.2832, -0.2676, 0.08984, 0.1035, 0.0166, 0.1035, 0.1289, -0.006836, -0.000977, -0.03223, -0.0537, 0.02051, -0.03418, 0.01563, -0.01758, -0.04785, -0.02832, 0.03418, -0.02637, 0.00879, -0.01758, -0.0, 0.009766, -0.000977, 0.000977, 0.00293, 0.02539, 0.01367, 0.007812, 0.2227, 0.37, 0.2451, 0.1006, -0.000977, 0.0781, -0.21, -0.584, -0.2422, 0.00879, -0.00879, -0.001953, -0.00293, 0.007812, 0.012695, -0.009766, 0.004883, 0.009766, 0.003906, -0.000977, -0.000977, -0.009766, 0.006836, 0.004883, -0.006836, 0.009766, 0.004883, -0.03223, -0.0635, -0.0332, 0.0703, 0.042, -0.01563, 0.03027, 0.04102, 0.01367, -0.292, -0.6475, -0.3652, 0.02148, 0.1201, 0.02344, 0.1953, 0.666, 0.3027, 0.01563, 0.00586, 0.01953, 0.05273, 0.04883, 0.0381, 0.0293, 0.0459, 0.03223, 0.03223, 0.02246, -0.0, 0.01855, 0.03906, -0.004883, 0.000977, -0.01758, -0.0166, -0.001953, -0.01367, 0.004883, -0.001953, 0.004883, -0.006836, 0.00293, 0.00586, 0.001953, -0.1328, -0.06445, -0.04492, -0.000977, -0.04102, -0.01953, 0.1396, 0.0703, 0.08887, 0.0293, 0.02637, -0.03027, 0.02539, 0.02148, -0.0381, 0.007812, 0.00586, -0.01953, 0.02344, 0.01758, -0.01074, 0.01953, 0.02344, -0.01172, -0.00586, -0.006836, -0.01563, -0.02539, 0.00293, -0.042, 0.03125, 0.1074, 0.03223, 0.05566, 0.168, 0.06152, -0.03613, 0.04102, 0.02637, -0.08887, 0.0498, 0.02637, -0.04785, 0.0293, 0.0381, 0.02832, 0.02832, -0.01074, 0.02637, 0.02539, -0.01758, -0.003906, -0.00879, -0.02539, 0.0459, 0.0166, 0.03027, -0.01367, -0.0166, -0.02344, -0.02441, 0.0537, -0.04297, -0.04102, -0.1504, -0.08496, 0.004883, -0.209, -0.1455, 0.00879, -0.1562, 0.01172, -0.02637, 0.05762, -0.03516, -0.0332, 0.1309, -0.09766, -0.01855, 0.083, -0.0586, -0.01563, 0.004883, 0.0635, -0.042, 0.08887, 0.1572, -0.02539, 0.10254, 0.0586, -0.02344, 0.03516, -0.003906, -0.0537, 0.3984, 0.0371, -0.007812, 0.2334, 0.0918, 0.000977, -0.05078, 0.11523, -0.0703, -0.06152, 0.1455, -0.0625, -0.05566, 0.0371, -0.02051, 0.0869, -0.0801, -0.02539, 0.1045, -0.07715, -0.02246, 0.10156, -0.06055, 0.03418, -0.2139, 0.1963, 0.03418, -0.2705, 0.3252, 0.03027, -0.2471, 0.2559, -0.00586, 0.00879, -0.02148, 0.03027, 0.01367, -0.0674, 0.0371, 0.001953, -0.01758, -0.01074, -0.0654, 0.08984, 0.08203, -0.1699, 0.3838, 0.03223, -0.0537, 0.2598, 0.004883, 0.02344, -0.03125, -0.01367, 0.05664, -0.03418, 0.001953, 0.0664, -0.05273, 0.0586, 0.01465, -0.0332, 0.0459, 0.0, -0.0664, 0.0332, -0.00293, -0.0332, 0.0381, 0.01758, -0.00293, 0.012695, 0.0674, -0.0293, 0.0293, -0.0, 0.00879, -0.012695, 0.1514, -0.1074, -0.03027, 0.1953, -0.1289, -0.012695, 0.1533, -0.11914, 0.03613, -0.000977, 0.02051, 0.01465, -0.2012, -0.0713, 0.01367, -0.0498, -0.1201, 0.01563, 0.02832, -0.009766, 0.0459, 0.006836, -0.02246, 0.02051, 0.03125, -0.003906, -0.02441, 0.0713, -0.03613, -0.007812, 0.08887, -0.0947, 0.001953, 0.03516, -0.02051, 0.00293, -0.03516, -0.02637, 0.00586, 0.001953, -0.01465, -0.01953, 0.02246, 0.007812, 0.0957, -0.0664, 0.01465, 0.0879, -0.1729, -0.05176, 0.08887, -0.012695, 0.06934, -0.001953, -0.009766, 0.01758, 0.01367, -0.009766, 0.03613, 0.00293, 0.006836, 0.02637, -0.00879, -0.01465, -0.003906, 0.00879, 0.009766, -0.0, 0.007812, 0.01953, -0.001953, -0.007812, -0.01074, 0.012695, 0.000977, -0.00293, 0.03516, 0.02051, 0.01367, 0.04004, -0.06055, 0.06836, -0.1406, -0.0742, 0.2275, -0.03125, -0.0547, 0.1562, -0.01465, 0.03906, 0.0293, 0.04492, -0.042, -0.10645, -0.084, -0.03516, -0.10254, -0.1113, 0.0166, 0.01074, 0.001953, 0.0332, 0.007812, -0.02441, 0.00586, 0.04004, -0.0166, -0.006836, -0.01172, -0.000977, 0.000977, -0.01367, 0.000977, -0.00293, 0.01172, 0.01758, 0.1895, -0.012695, 0.1562, 0.0498, -0.375, -0.1758, 0.0742, -0.3809, -0.10645, 0.02539, 0.01563, -0.004883, -0.000977, -0.01172, 0.00293, -0.0293, -0.04395, 0.01758, -0.004883, 0.00586, -0.004883, 0.004883, -0.01367, 0.004883, 0.004883, 0.02148, 0.00879, 0.02051, -0.01855, -0.009766, -0.02246, -0.08203, -0.0869, -0.02539, -0.0781, -0.0713, 0.05664, 0.01758, -0.03125, 0.012695, -0.1475, -0.1387, -0.04297, -0.1562, -0.1426, -0.0, 0.01758, 0.012695, 0.0166, 0.02246, -0.001953, 0.000977, -0.00586, 0.00586, -0.2344, -0.04688, -0.2217, -0.012695, 0.5, 0.2441, -0.08594, 0.3164, 0.0, -0.02637, -0.02148, 0.1035, 0.02246, 0.11035, -0.1582, 0.006836, 0.02051, -0.0537, 0.004883, -0.02148, 0.004883, -0.00586, -0.02051, 0.0293, 0.003906, 0.02539, -0.03027, 0.0381, 0.03223, -0.1309, -0.03223, -0.1572, 0.1553, 0.000977, -0.00293, 0.0742, -0.02051, 0.012695, 0.01074, 0.02051, -0.2363, 0.1455, -0.01563, 0.1211, -0.1416, 0.01367, 0.124, -0.1074, 0.124, -0.3604, 0.1807, -0.1006, 0.083, 0.0586, 0.006836, -0.06934, 0.0293, -0.06836, 0.0371, 0.05273, 0.02148, 0.0781, -0.1035, -0.0293, 0.0781, -0.02246, 0.02832, 0.1211, -0.1895, 0.04102, -0.2051, 0.1504, 0.0371, -0.02637, -0.03027, 0.01367, -0.1445, 0.1387, -0.0381, -0.0332, 0.10254, 0.01172, -0.02832, -0.03516, -0.02637, 0.2129, -0.1855, 0.009766, -0.1318, 0.1719, -0.02832, 0.012695, 0.01465, 0.02051, -0.02148, 0.01465, 0.02539, -0.00586, -0.04785, -0.02344, -0.003906, 0.04883, -0.01367, 0.1729, -0.1426, 0.02734, 0.012695, -0.0664, 0.007812, -0.007812, 0.006836, -0.0459, 0.1465, -0.1455, 0.01855, -0.1582, 0.1465, 0.000977, -0.02344, -0.00586, -0.003906, -0.04492, 0.0752, -0.05957, 0.1338, -0.07324, -0.01172, -0.07227, 0.125, -0.11816, 0.4941, -0.3457, 0.1436, -0.505, 0.3643, -0.01758, 0.0332, -0.01953, 0.02734, -0.1348, 0.126, -0.00879, 0.1045, -0.08984, -0.01855, -0.01367, 0.01953, -0.006836, 0.009766, 0.01563, 0.00293, 0.04785, -0.0713, 0.01172, -0.10547, -0.06836, -0.0752, -0.1943, -0.1201, -0.0947, -0.1436, -0.11426, 0.1387, -0.04297, 0.0947, 0.06055, -0.1836, -0.1396, 0.165, -0.0332, 0.02734, 0.05762, 0.06152, 0.00293, 0.1982, 0.2617, 0.10645, 0.1387, 0.166, 0.08203, 0.04004, -0.01758, -0.0332, 0.1445, -0.1406, -0.1006, 0.0674, -0.0752, -0.0625, -0.0625, 0.124, 0.04688, -0.0459, 0.1523, 0.1875, -0.1133, -0.00586, -0.01953, 0.0, -0.04297, -0.009766, 0.083, 0.01563, -0.04688, 0.127, -0.03418, -0.01563, -0.2607, 0.03906, 0.04004, -0.3184, 0.1719, 0.2695, -0.3496, 0.03125, 0.1436, 0.0166, 0.0371, 0.01953, -0.03125, 0.01074, 0.003906, -0.0332, -0.01563, -0.02832, 0.004883, 0.006836, -0.004883, -0.0908, 0.084, -0.001953, -0.04492, 0.01758, 0.01563, 0.05273, -0.01758, 0.03906, 0.04492, -0.0498, -0.03418, 0.1074, -0.04492, -0.00586, 0.00293, 0.02246, 0.0166, -0.009766, -0.01855, 0.01465, -0.01563, 0.01563, -0.004883, 0.02246, 0.0166, 0.01758, 0.02734, 0.03613, 0.04297, 0.012695, -0.000977, 0.007812, 0.1592, 0.0498, -0.1045, 0.255, 0.0674, -0.1084, 0.1484, -0.012695, -0.2002, -0.06445, -0.209, -0.1309, 0.1602, 0.1494, 0.02051, 0.1641, 0.0801, 0.126, 0.03906, 0.03223, 0.04395, 0.04688, 0.0371, 0.04004, 0.01074, 0.01074, 0.02051, 0.04004, -0.02051, 0.01172, 0.0879, 0.000977, -0.04492, 0.04297, -0.01953, -0.0459, 0.11816, -0.08496, 0.01855, -0.05078, -0.2812, 0.2461, -0.0713, 0.2012, -0.1465, -0.01855, 0.03906, -0.03516, 0.0908, -0.08984, -0.001953, -0.01953, -0.04297, 0.0703, -0.10645, 0.03906, 0.01074, 0.02051, 0.2363, -0.3418, 0.08984, -0.1768, 0.1484, -0.0654, 0.0781, -0.0547, 0.01855, -0.04688, 0.0762, 0.04492, -0.124, 0.10645, -0.125, 0.1406, -0.03516, 0.05957, 0.11816, -0.125, 0.0908, -0.1797, 0.06934, -0.01074, -0.000977, -0.006836, 0.02441, -0.0293, 0.000977, 0.001953, -0.03223, 0.03516, 0.05664, -0.1953, 0.09375, -0.1416, 0.125, 0.0498, -0.00586, 0.166, -0.1416, -0.0381, 0.10156, -0.04688, 0.02734, 0.2344, -0.254, 0.1133, -0.1992, 0.0742, 0.0459, -0.10547, 0.05957, -0.0498, 0.1162, -0.06445, -0.03223, 0.1582, -0.1699, -0.01563, 0.01855, 0.00293, 0.01074, 0.003906, -0.02441, -0.003906, -0.0371, 0.02832, 0.06152, -0.1006, 0.0371, -0.04785, -0.248, 0.3203, -0.1367, 0.1719, -0.00586, 0.0166, -0.05957, 0.03027, -0.0801, 0.03906, 0.01758, 0.01367, 0.07227, -0.08984, -0.042, 0.07227, -0.08496, 0.0908, -0.07715, 0.0664, -0.02539, -0.0459, 0.0996, 0.1611, -0.2041, 0.042, -0.0947, 0.08105, -0.0664, -0.125, 0.10645, 0.1367, -0.01758, 0.05078, -0.0293, 0.02832, -0.00293, -0.0537, -0.02832, -0.03027, 0.06836, -0.0293, 0.02148, -0.02246, 0.0654, -0.05566, 0.01563, 0.004883, -0.02734, 0.0166, 0.02148, -0.007812, -0.02051, -0.000977, -0.00586, 0.0, -0.01758, -0.007812, -0.00293, -0.2021, 0.0703, 0.1543, -0.537, 0.08105, 0.3477, -0.2441, 0.0957, 0.2031, -0.02344, 0.01172, 0.006836, -0.001953, 0.00293, -0.001953, 0.00879, 0.00586, 0.001953, -0.0, 0.006836, -0.003906, 0.001953, 0.004883, 0.00293, 0.003906, 0.007812, -0.00586, 0.03418, -0.01367, -0.007812, 0.03906, -0.0537, -0.03906, 0.03613, -0.01953, -0.01758, 0.12305, 0.05078, -0.2256, 0.539, 0.1221, -0.6094, 0.2246, 0.11914, -0.3555, 0.01758, 0.01953, 0.01758, -0.003906, -0.0332, 0.001953, 0.001953, -0.01563, 0.02441, 0.000977, 0.000977, -0.001953, 0.0, 0.01758, -0.007812, -0.00586, 0.01563, -0.0166, 0.004883, -0.001953, -0.00879, 0.000977, 0.01074, -0.01172, 0.003906, -0.00293, 0.003906, -0.1201, 0.01367, 0.0537, -0.375, 0.0801, 0.2568, -0.1963, 0.0967, 0.1582, 0.00879, -0.0, 0.000977, 0.000977, 0.000977, 0.001953, -0.004883, -0.009766, -0.006836, 0.001953, 0.01074, 0.003906, 0.00586, -0.007812, -0.0, 0.001953, -0.00586, -0.004883, 0.0498, -0.01855, -0.05273, 0.124, -0.007812, -0.04883, 0.05762, -0.00879, -0.03516, 0.08887, -0.02734, -0.0635, 0.169, -0.03125, -0.1309, 0.0928, -0.01367, -0.07227, 0.007812, 0.00586, 0.01172, 0.003906, 0.0166, 0.003906, -0.001953, 0.00879, -0.004883, 0.0947, 0.1123, -0.209, 0.334, 0.1768, -0.502, 0.08887, 0.1494, -0.2617, 0.0635, -0.1992, 0.1123, 0.04395, 0.1611, -0.2227, -0.1006, 0.1162, 0.02832, 0.04395, 0.03223, -0.08887, -0.07715, 0.1133, -0.02637, -0.0, -0.0781, 0.0654, -0.05664, 0.1514, -0.09766, -0.02734, -0.2109, 0.2441, 0.07227, -0.1113, -0.01855, -0.03613, 0.04297, -0.02832, -0.05957, 0.1475, -0.1279, 0.05762, -0.1875, 0.12305, -0.1094, 0.012695, 0.0791, 0.1836, -0.3047, 0.1279, 0.042, 0.04492, -0.06934, 0.0381, -0.001953, -0.0537, -0.01172, 0.06934, -0.03418, -0.05176, -0.01855, 0.0459, -0.0586, -0.1074, 0.1787, 0.1221, -0.2148, 0.0996, 0.01563, 0.1406, -0.1699, 0.0928, -0.1338, 0.0498, 0.00586, 0.1758, -0.1729, -0.05664, 0.1035, -0.04395, 0.01953, -0.04785, 0.03027, 0.06152, -0.2227, 0.168, -0.0547, 0.1807, -0.0947, 0.0293, -0.01172, -0.04102, 0.01465, 0.04395, -0.01465, -0.0371, -0.03027, 0.03613, -0.08203, 0.1533, -0.05078, 0.01074, -0.2197, 0.2314, 0.04883, -0.1318, 0.08105, -0.05664, 0.01953, 0.02148, 0.0547, -0.1133, 0.06836, -0.00586, 0.0654, -0.0791, 0.01758, -0.00586, -0.042, -0.0928, 0.1582, -0.0703, 0.006836, -0.0371, 0.06152, -0.00293, -0.1943, 0.1738, -0.0586, 0.3008, -0.3184, 0.1504, -0.3174, 0.332, 0.03125, -0.03418, 0.000977, -0.04004, 0.08203, -0.0293, -0.004883, -0.0742, 0.0713, 0.00586, 0.03223, -0.0459, -0.003906, 0.0381, -0.00879, -0.02148, -0.01074, 0.001953, 0.07715, 0.0996, 0.012695, -0.0625, -0.0166, 0.0928, -0.012695, -0.0928, -0.1426, -0.003906, 0.08496, 0.0879, -0.06445, -0.1455, -0.1396, 0.04297, 0.0918, 0.0381, -0.07715, -0.1289, -0.03027, 0.07324, 0.07227, -0.06445, -0.001953, 0.02637, 0.10156, -0.02637, -0.004883, 0.04785, 0.01855, -0.009766, -0.05273, 0.003906, 0.01367, -0.02441, 0.1289, -0.01855, -0.0801, -0.10645, 0.1289, 0.1279, -0.01855, -0.09766, -0.05762, -0.00879, 0.01758, 0.04785, -0.04883, -0.07715, -0.0547, 0.05273, 0.05762, -0.000977, -0.03906, -0.1748, -0.2012, 0.1465, 0.375, 0.2656, -0.1387, -0.1816, -0.0762, 0.11914, 0.1797, -0.1094, -0.1816, -0.05176, 0.169, 0.0674, -0.0742, -0.1885, 0.02344, -0.00879, -0.0371, -0.01074, -0.00586, 0.04297, -0.00879, -0.0332, -0.01758, 0.02051, 0.01172, 0.00293, -0.06055, -0.02539, -0.04004, 0.02832, 0.0371, 0.006836, -0.127, -0.168, 0.05078, 0.125, 0.1035, -0.1592, -0.0947, 0.0664, 0.2344, -0.04004, -0.248, -0.0664, 0.0879, 0.5527, 0.2402, -0.004883, -0.252, -0.11426, 0.00293, 0.10156, 0.08887, -0.083, -0.1914, -0.1084, 0.06445, 0.0752, 0.0459, -0.05273, 0.04785, -0.12305, 0.1621, -0.2363, 0.007812, -0.08105, 0.1426, 0.11914, 0.02539, 0.166, -0.02832, 0.0332, -0.2246, 0.02051, -0.05957, 0.1748, 0.1172, -0.001953, 0.01172, 0.04492, -0.02246, -0.05664, -0.0459, 0.01758, 0.04688, -0.000977, 0.1758, 0.01953, -0.0166, 0.248, 0.1436, 0.01172, 0.0703, 0.1045, 0.03223, 0.01465, 0.07715, 0.0166, -0.167, 0.03027, -0.06152, -0.000977, 0.0918, 0.02832, -0.07715, -0.0801, -0.00293, -0.2139, -0.1289, -0.02441, -0.0293, -0.1299, -0.06445, -0.04004, 0.02051, 0.00293, -0.127, 0.084, -0.04688, -0.0664, 0.0166, -0.04395, 0.1426, 0.01172, -0.02344, 0.1582, -0.0674, 0.0, 0.04883, -0.10254, -0.05957, -0.03223, -0.009766, -0.00293, -0.09375, 0.1338, 0.03027, -0.009766, 0.0781, 0.01367, 0.1855, -0.1338, -0.04102, 0.2764, -0.1953, -0.1074, 0.166, -0.2422, -0.124, 0.03906, 0.0332, -0.05078, -0.02539, 0.01465, -0.01074, -0.05078, -0.01074, 0.02441, 0.0654, -0.05762, -0.03906, 0.1289, -0.08105, -0.05762, 0.07227, -0.07715, -0.04688, 0.01367, 0.02148, 0.00879, -0.03223, 0.042, -0.009766, 0.02832, 0.0498, 0.004883, 0.01953, -0.02734, 0.0957, 0.0586, -0.02539, 0.03223, 0.0586, 0.009766, -0.03516, 0.01953, 0.02246, 0.04688, 0.00586, 0.042, -0.012695, 0.006836, -0.0459, 0.0166, -0.0801, 0.1328, -0.02441, -0.05078, 0.1807, 0.0498, -0.1309, 0.0654, -0.02344, 0.2148, -0.2188, -0.2393, 0.504, -0.006836, -0.2305, 0.3281, 0.012695, -0.1416, 0.04004, 0.0166, 0.03125, 0.0332, 0.00879, 0.07715, -0.01172, 0.02539, -0.000977, -0.01465, -0.012695, -0.0, -0.03906, 0.0674, 0.02051, -0.00293, 0.0, -0.000977, -0.012695, 0.1279, 0.1006, -0.01563, -0.2148, -0.1943, 0.02441, 0.0879, 0.08496, -0.001953, -0.0371, -0.009766, 0.02051, 0.07715, -0.01563, -0.03613, -0.01563, 0.01465, 0.01953, -0.0996, -0.0918, -0.009766, 0.166, 0.207, -0.00293, -0.0674, -0.1113, -0.006836, -0.04883, -0.009766, -0.006836, 0.03516, -0.01758, -0.007812, 0.000977, -0.000977, 0.0293, 0.1943, 0.06934, -0.0957, -0.252, -0.1006, 0.0498, 0.10254, 0.01563, 0.01953, -0.00293, -0.02637, 0.02637, -0.001953, 0.007812, -0.04297, -0.01367, 0.02051, 0.06836, 0.1309, -0.03125, -0.2129, -0.1406, 0.0801, 0.09375, 0.0674, -0.05664, -0.0967, 0.1533, 0.1777, 0.03906, -0.2373, -0.1348, -0.04785, 0.0762, 0.09375, 0.00293, 0.0293, -0.0, -0.01855, -0.06152, -0.01074, 0.01758, 0.0166, -0.0332, 0.006836, 0.01465, 0.04102, -0.01953, -0.02539, -0.03125, -0.007812, 0.009766, -0.00586, 0.084, -0.2002, -0.2051, -0.05762, 0.2383, 0.1943, 0.007812, -0.1387, -0.08594, 0.0654, 0.0371, -0.1631, -0.1475, -0.3027, 0.0957, 0.02734, 0.2266, 0.01855, -0.0928, -0.04395, 0.06934, 0.08984, 0.07324, -0.04004, -0.03613, -0.0459, 0.012695, 0.07715, 0.3213, 0.3672, -0.0371, 0.08984, -0.3232, -0.009766, -0.3574, -0.0967, -0.05176, 0.03906, 0.1221, 0.05957, 0.1396, -0.0869, 0.01953, -0.11426, -0.00586, 0.02734, -0.01074, -0.01758, -0.0166, 0.009766, 0.0166, -0.02344, -0.00586, 0.01172, -0.0947, -0.0166, -0.01465, -0.084, 0.1738, 0.2734, -0.03418, 0.11035, 0.1992, 0.0791, -0.08984, 0.06055, -0.012695, -0.248, 0.08594, 0.08887, -0.05566, 0.127, 0.0, -0.1494, -0.0752, 0.0947, -0.1162, -0.1836, 0.05078, -0.08984, -0.1348, 0.000977, -0.0674, 0.04883, 0.0801, -0.01953, 0.1904, 0.0654, 0.02734, 0.1562, 0.1865, 0.07227, -0.1602, 0.3018, 0.11816, -0.1807, 0.02734, -0.0166, -0.1875, -0.05273, 0.0, -0.003906, -0.009766, 0.05566, 0.0762, 0.00879, -0.006836, 0.03418, -0.06055, 0.1641, -0.1768, -0.02246, 0.2832, -0.125, -0.0791, 0.1738, -0.2148, 0.07227, 0.00879, -0.02637, 0.05176, 0.09375, -0.08887, 0.01074, 0.01758, -0.1074, -0.0371, -0.04395, 0.007812, -0.05176, 0.0762, 0.1201, -0.007812, 0.0957, 0.1221, 0.02539, -0.04492, 0.00293, 0.02734, -0.03613, 0.06934, 0.04785, -0.01953, 0.0625, 0.04297, 0.126, -0.05566, 0.0498, 0.05566, -0.08496, 0.02539, 0.04102, -0.0674, 0.05664, 0.0742, -0.01563, 0.06152, 0.03418, 0.01953, 0.02246, -0.0, -0.02148, -0.01367, -0.02051, 0.11035, -0.02637, -0.042, 0.1299, -0.03418, -0.08984, 0.0713, -0.0635, -0.02734, -0.0371, 0.03125, -0.0908, -0.1777, 0.02148, -0.2305, -0.2031, 0.0703, 0.06934, 0.007812, 0.0674, 0.08887, -0.03125, 0.01563, 0.01172, -0.01465, 0.01074, -0.01758, 0.04785, 0.01172, -0.05566, 0.00586, 0.04297, -0.02539, 0.012695, 0.01758, -0.05176, -0.05664, 0.009766, -0.0, 0.02637, -0.02832, 0.01855, 0.06445, 0.0537, 0.04395, 0.10156, -0.01563, -0.0381, 0.01563, 0.03223, -0.1377, -0.01953, -0.02637, -0.0459, -0.003906, 0.01563, 0.0, -0.0293, 0.0381, 0.03027, -0.02051, -0.01172, 0.01563, 0.00586, 0.00586, 0.03027, 0.012695, 0.0293, -0.00586, 0.02344, -0.1299, -0.1426, -0.1445, 0.0371, 0.1133, -0.03027, 0.1084, 0.209, 0.02148, 0.03223, 0.11816, 0.0664, 0.01953, 0.02051, -0.0371, -0.03125, -0.0947, -0.0879, -0.2461, -0.2236, -0.2227, -0.06445, 0.0166, -0.00586, 0.0947, 0.3477, 0.2559, 0.1035, 0.2012, 0.127, 0.1279, 0.3047, 0.2852, 0.01855, 0.127, 0.1357, 0.01758, -0.0332, 0.00879, 0.012695, 0.01953, 0.03027, -0.009766, 0.04004, 0.03906, 0.01758, -0.01074, 0.02148, 0.009766, 0.0293, 0.05078, -0.00879, -0.07324, -0.01367, -0.04102, -0.1895, -0.166, -0.124, -0.1904, -0.2402, -0.0625, -0.1621, -0.1465, -0.0381, -0.1279, -0.124, -0.001953, -0.00879, -0.04492, 0.02148, 0.05566, 0.04102, 0.11523, 0.167, 0.126, 0.05664, 0.0967, 0.0654, -0.1416, -0.1982, -0.1621, -0.0957, -0.0801, 0.05664, -0.0625, 0.08984, 0.07715, 0.009766, 0.1162, 0.1221, 0.02441, 0.06152, 0.02344, -0.009766, -0.03223, -0.0537, -0.0371, -0.0762, -0.0762, 0.05078, 0.0967, 0.04102, 0.02539, 0.02051, 0.012695, -0.02344, -0.1494, -0.083, -0.01367, 0.004883, 0.01367, 0.006836, 0.000977, 0.00293, 0.01953, 0.000977, -0.003906, -0.1162, -0.125, -0.1162, 0.0752, 0.05078, 0.0869, 0.0762, -0.02637, 0.07227, 0.01855, 0.007812, 0.00293, -0.007812, -0.000977, 0.003906, -0.01563, -0.003906, 0.00586, 0.00586, 0.00293, -0.004883, -0.01074, 0.01172, 0.006836, -0.00586, 0.00293, 0.007812, 0.01074, -0.006836, -0.01563, 0.04004, 0.0166, -0.003906, -0.00586, -0.00293, 0.00586, 0.1621, 0.1934, 0.167, 0.0371, 0.007812, 0.0371, -0.1074, -0.2471, -0.2197, 0.04492, 0.0586, 0.0625, 0.0381, 0.06934, 0.06055, -0.01172, -0.0332, -0.000977, 0.02637, 0.01172, -0.006836, 0.009766, 0.01953, -0.01074, 0.001953, -0.009766, -0.00293, 0.003906, 0.001953, 0.004883, -0.00293, 0.00586, -0.000977, -0.001953, -0.003906, -0.003906, 0.2793, 0.4941, 0.3125, 0.000977, 0.0166, 0.04395, -0.2715, -0.5234, -0.3242, 0.02734, 0.0371, -0.00879, 0.02051, 0.0293, -0.02051, 0.004883, 0.007812, -0.0166, 0.02246, 0.02441, -0.0, 0.01855, 0.01953, -0.009766, -0.00586, -0.01172, -0.01465, -0.006836, 0.0586, -0.0166, 0.02246, 0.0967, 0.02051, 0.01465, 0.10645, 0.042, -0.03613, 0.03125, 0.02148, -0.08496, 0.06934, 0.05078, -0.04395, 0.03906, 0.042, 0.02148, 0.01855, -0.01074, 0.02344, 0.01758, -0.01367, -0.00293, -0.001953, -0.01563, -0.252, -0.4785, -0.3203, 0.01855, 0.01074, -0.012695, 0.209, 0.501, 0.2793, -0.01563, -0.03125, -0.02832, 0.00293, 0.0166, -0.003906, 0.03906, 0.02441, -0.0166, -0.08594, 0.1123, -0.0547, -0.0547, 0.3584, 0.1592, -0.08594, 0.248, -0.01953, 0.00586, 0.01563, 0.007812, 0.001953, 0.01367, 0.01074, 0.004883, -0.0674, 0.000977, 0.001953, 0.009766, -0.00293, 0.01855, 0.02344, 0.009766, 0.0166, 0.003906, -0.012695, 0.02051, -0.01953, -0.02051, 0.04492, -0.01953, -0.03613, 0.00879, -0.0371, 0.006836, 0.2363, -0.00879, 0.2598, 0.0879, -0.615, -0.253, 0.1572, -0.4102, -0.05078, 0.01563, 0.012695, 0.01367, -0.01953, -0.009766, -0.02441, 0.01172, -0.01465, 0.01367, 0.0166, 0.01758, -0.02637, 0.03125, 0.08203, -0.006836, 0.01953, -0.02832, -0.03906, 0.006836, -0.01563, -0.00293, -0.000977, 0.00586, -0.00293, 0.01367, -0.01074, 0.00293, 0.0635, -0.001953, -0.00293, -0.04102, -0.07324, -0.01758, -0.06445, -0.05664, 0.0498, 0.05762, 0.0742, 0.01172, 0.01465, 0.03223, -0.007812, 0.012695, 0.02734, -0.04688, 0.0635, 0.08105, 0.01855, 0.02734, 0.04395, -0.01172, -0.003906, -0.0381, -0.02734, 0.083, 0.01758, -0.03906, 0.06055, -0.01953, -0.0498, 0.01074, -0.02832, -0.03516, 0.02441, -0.0498, -0.03613, -0.06152, -0.1328, -0.10156, -0.01465, -0.1396, -0.0635, 0.0459, 0.0752, 0.01172, 0.04883, 0.0742, 0.01074, 0.01172, -0.00293, -0.0459, 0.1299, 0.03125, 0.0947, 0.02539, -0.1904, 0.01563, 0.02539, -0.01563, 0.0752, 0.003906, 0.02051, 0.03027, -0.03027, -0.1758, -0.1484, 0.01563, 0.1641, 0.09863, -0.004883, 0.05176, 0.03613, 0.04297, -0.003906, -0.0713, -0.0332, -0.01855, -0.004883, 0.01172, -0.02637, -0.0674, 0.006836, 0.1553, 0.1553, -0.02344, -0.1543, -0.0996, 0.000977, 0.004883, -0.00586, 0.006836, 0.02246, -0.04395, -0.01563, -0.0371, 0.001953, -0.05957, -0.1396, -0.04688, 0.09863, 0.3203, 0.1729, -0.01953, -0.1572, -0.1699, -0.02734, -0.012695, 0.006836, 0.0586, 0.0547, 0.01855, -0.03418, -0.05078, -0.03223, 0.02734, 0.02734, -0.03027, -0.2363, -0.1387, 0.01074, 0.1074, 0.1855, 0.04688, -0.01758, -0.08984, -0.0371, 0.02734, 0.2842, 0.3096, -0.0293, -0.2588, -0.289, 0.004883, 0.006836, 0.00293, -0.02246, -0.02539, 0.01563, 0.02051, -0.00293, -0.042, -0.006836, -0.01465, 0.004883, 0.02441, 0.01465, 0.00879, -0.0166, -0.01465, -0.02344, -0.01758, 0.01563, 0.05176, -0.006836, -0.2656, -0.2598, -0.012695, 0.2256, 0.1758, 0.012695, 0.1465, 0.03223, -0.1377, -0.3838, -0.03223, 0.0957, 0.1709, -0.08984, -0.0537, -0.0293, 0.03516, 0.11426, 0.08984, -0.03125, -0.1084, -0.0625, 0.03516, -0.042, 0.012695, 0.00879, -0.0459, -0.1699, 0.2129, 0.1289, 0.0713, -0.1621, -0.000977, -0.0537, -0.00293, 0.07715, 0.2734, 0.0801, -0.007812, 0.01758, 0.1445, -0.02832, 0.02344, 0.00586, 0.03125, 0.04102, -0.03125, -0.01855, -0.03027, -0.00293, -0.000977, 0.01953, -0.05078, -0.02051, -0.02734, -0.001953, -0.03613, 0.00586, -0.03027, -0.0381, -0.0781, -0.05566, 0.11914, 0.1396, 0.1416, -0.03906, -0.124, -0.08984, -0.00293, 0.000977, 0.00879, 0.0166, -0.05078, -0.07715, 0.01172, 0.000977, -0.01953, 0.004883, 0.01465, 0.000977, 0.06055, -0.001953, 0.02051, 0.00879, 0.00879, 0.02148, -0.03418, -0.0625, 0.0, -0.1201, -0.1934, -0.06055, 0.168, 0.2285, 0.1123, -0.007812, -0.04492, -0.03613, 0.03906, 0.04785, 0.04688, -0.01758, -0.04102, -0.01367, 0.1211, 0.1328, 0.09863, -0.1826, -0.2051, -0.1758, 0.0625, 0.04688, 0.08984, -0.06055, -0.1904, -0.0674, 0.01953, -0.01855, -0.01172, 0.1113, 0.3496, 0.2275, 0.01172, -0.01563, 0.007812, -0.012695, -0.001953, 0.02832, -0.001953, -0.00586, 0.02637, -0.003906, -0.05762, -0.04004, 0.05957, 0.04785, 0.08203, 0.000977, -0.04785, -0.03125, 0.03906, 0.29, 0.1855, -0.0381, -0.03906, 0.01465, -0.0459, -0.1641, -0.0879, 0.0537, 0.1611, 0.1455, 0.04883, 0.1465, 0.1045, 0.10645, 0.168, 0.1846, -0.08203, -0.05566, -0.0791, 0.0654, 0.1396, 0.0801, 0.004883, 0.10254, 0.01758, 0.03125, 0.02734, -0.0293, 0.04785, 0.01563, 0.10156, -0.012695, -0.0967, 0.0586, 0.03027, 0.05664, 0.08203, 0.0957, 0.2695, 0.2197, 0.0713, 0.2461, 0.2119, -0.01367, -0.05566, -0.04395, 0.09863, 0.07715, 0.05078, -0.04492, -0.0752, -0.0293, -0.04492, 0.01563, 0.05566, -0.0332, -0.0293, 0.00586, 0.06836, -0.04102, -0.08594, 0.02051, -0.1113, -0.01953, -0.00293, -0.04883, -0.02051, 0.04688, 0.0537, 0.1133, 0.04102, 0.01563, -0.0332, 0.04395, 0.03613, 0.02051, -0.04004, -0.0547, -0.007812, 0.01172, -0.01465, -0.01855, 0.01172, 0.01953, 0.01953, 0.001953, 0.0371, -0.01074, 0.1719, 0.2656, 0.127, 0.01758, 0.0674, -0.03516, -0.2012, -0.1836, -0.2129, -0.04395, -0.03418, -0.05176, -0.0166, 0.012695, -0.04004, 0.0547, 0.08203, 0.0371, 0.0908, 0.3184, 0.2715, -0.0547, 0.03418, 0.03418, -0.2832, -0.2285, -0.2295, -0.0703, -0.165, -0.08203, -0.1367, -0.2441, -0.1865, -0.07715, -0.1621, -0.1426, 0.001953, 0.02148, 0.02734, -0.000977, 0.03027, 0.006836, 0.02734, -0.02051, -0.004883, -0.006836, -0.0547, -0.02148, -0.001953, -0.03125, -0.02832, 0.03516, 0.04492, 0.0781, 0.05566, 0.127, 0.0654, 0.0928, 0.2617, 0.2646, 0.03906, 0.2422, 0.2051, 0.0166, 0.05664, 0.05762, -0.012695, -0.03027, -0.01465, -0.0586, -0.1211, -0.124, -0.0625, -0.1279, -0.10645, 0.03027, 0.0371, 0.02832, 0.08203, 0.1279, 0.0791, 0.0957, 0.252, 0.1172, -0.0869, 0.03613, 0.04102, -0.11523, -0.0635, -0.08203, -0.01172, -0.06445, -0.04102, -0.04395, -0.0537, -0.0537, 0.01758, -0.01074, 0.01563, -0.01465, -0.0498, -0.03223, 0.02637, 0.03516, 0.03516, 0.02344, -0.01563, 0.000977, -0.01172, 0.04004, -0.0742, -0.006836, 0.251, -0.252, -0.04297, 0.2363, -0.1992, 0.02051, -0.01855, 0.02637, 0.006836, -0.01367, -0.007812, 0.00879, -0.03223, 0.01074, -0.001953, -0.01367, 0.0762, 0.01074, -0.1992, 0.29, 0.01465, -0.1875, 0.2695, 0.00586, -0.04688, -0.004883, 0.04688, -0.2979, 0.10254, 0.02832, -0.1826, 0.0703, 0.004883, -0.11426, 0.12305, 0.02637, -0.207, 0.2139, 0.04102, -0.206, 0.11816, -0.00586, 0.009766, 0.00586, -0.00586, -0.02148, -0.01758, -0.000977, -0.0, 0.03223, -0.02539, 0.0332, -0.03516, 0.01563, 0.0537, -0.003906, -0.007812, 0.03223, -0.0371, -0.02734, 0.02441, 0.006836, 0.012695, -0.05273, 0.01953, 0.02051, 0.01855, -0.05078, -0.02148, 0.0752, -0.03418, -0.0459, 0.2637, -0.06152, -0.0332, 0.25, -0.0547, 0.001953, -0.01172, 0.012695, 0.003906, -0.05957, 0.02832, 0.006836, -0.02051, 0.0332, 0.02344, -0.01953, -0.02441, -0.001953, -0.006836, 0.003906, 0.01758, -0.0674, 0.0547, 0.003906, -0.006836, -0.01465, 0.007812, -0.04785, 0.04102, -0.000977, -0.001953, 0.00293, 0.03418, -0.009766, -0.007812, 0.02246, 0.02734, 0.01074, 0.0371, 0.01172, -0.01855, 0.03223, 0.0752, -0.10547, -0.006836, 0.11914, -0.07324, -0.01465, 0.01172, 0.0537, 0.00293, -0.0332, 0.004883, -0.003906, 0.01172, -0.02637, 0.009766, -0.004883, 0.0, 0.01172, -0.01367, 0.00586, 0.02441, -0.0498, 0.000977, 0.01367, -0.02832, 0.02734, -0.11035, 0.2402, -0.07715, 0.248, -0.1953, -0.1387, -0.0371, -0.1494, 0.124, -0.09863, 0.05762, 0.02148, 0.0293, 0.1133, -0.08984, 0.0498, -0.06445, -0.03223, 0.09863, -0.2773, 0.0654, -0.2217, 0.166, 0.124, 0.04297, 0.1426, -0.11523, -0.007812, -0.02344, 0.001953, -0.11816, 0.1738, -0.0869, 0.01855, -0.02051, 0.01172, 0.1045, -0.2227, 0.083, -0.2041, 0.1797, 0.01074, 0.01172, 0.0654, -0.02344, -0.02441, 0.006836, 0.02734, -0.03125, 0.04492, -0.02344, 0.05664, -0.01367, -0.05957, 0.1582, -0.004883, -0.1221, 0.08594, -0.2627, 0.1318, -0.0928, 0.04102, 0.06152, 0.0801, -0.2051, 0.0957, -0.2314, 0.1904, 0.07324, -0.000977, 0.126, -0.0742, -0.0166, -0.04102, -0.02637, 0.125, -0.1836, 0.1348, -0.0459, 0.09766, 0.007812, -0.02539, -0.00293, 0.02637, -0.009766, 0.0713, -0.03223, 0.0371, -0.03125, -0.0498, -0.0908, 0.2324, -0.10156, 0.2256, -0.1914, -0.04004, -0.01563, -0.1221, 0.1094, 0.007812, 0.0654, -0.0781, -0.00293, -0.11035, 0.0869, -0.04004, 0.03418, 0.0293, -0.0781, 0.01758, 0.01074, -0.0381, 0.1123, -0.0703, 0.06152, -0.04395, 0.05078, -0.1523, 0.2188, -0.03125, 0.2051, -0.02148, 0.0781, -0.00293, 0.08984, -0.2842, -0.01465, -0.04004, 0.05176, 0.004883, 0.07324, -0.04395, -0.01953, -0.01953, 0.003906, -0.007812, 0.01367, -0.000977, -0.01563, 0.06445, -0.04297, 0.03125, -0.0635, 0.003906, 0.004883, -0.05566, 0.01172, 0.04102, 0.1406, -0.02051, -0.04785, -0.08496, 0.01172, -0.012695, -0.03027, -0.004883, 0.01367, 0.0586, 0.02734, 0.003906, -0.003906, -0.0625, 0.006836, 0.084, 0.01758, -0.02832, -0.1484, -0.02832, 0.02441, 0.0586, 0.012695, 0.00586, -0.006836, -0.05078, -0.0371, 0.001953, 0.04102, 0.01855, -0.00293, -0.04297, 0.1797, 0.1611, -0.00293, -0.2295, -0.2051, -0.1074, 0.0791, 0.09766, 0.042, -0.012695, -0.01074, -0.007812, 0.01367, 0.03027, 0.0381, -0.001953, -0.0293, -0.03906, -0.02539, 0.0742, 0.1328, 0.0537, -0.084, -0.2178, -0.0781, 0.04883, 0.09375, 0.03516, 0.2285, 0.05176, -0.0967, -0.293, -0.08496, 0.0801, 0.124, -0.04883, -0.012695, -0.0, 0.02637, 0.03516, -0.03027, -0.0791, -0.0293, -0.003906, 0.03223, 0.0166, 0.04492, 0.02539, -0.02441, -0.0293, -0.02539, -0.001953, 0.000977, -0.02734, -0.05566, -0.255, -0.1162, 0.11523, 0.3213, 0.06934, -0.10254, -0.1797, 0.00586, -0.09375, -0.0586, 0.0674, 0.03418, -0.2402, -0.2637, 0.001953, 0.2412, 0.1455, 0.0547, -0.02637, -0.10254, -0.009766, 0.0742, 0.08984, 0.004883, -0.042, -0.06445, 0.2148, 0.3203, 0.3662, 0.004883, -0.2354, -0.254, -0.209, -0.0781, -0.11426, 0.0801, 0.1133, -0.02051, -0.0498, 0.0703, 0.1133, 0.01074, -0.1094, -0.02441, -0.000977, -0.0166, -0.01172, 0.01465, 0.02832, 0.012695, -0.01074, -0.003906, -0.02051, -0.0166, 0.004883, 0.01367, 0.003906, -0.00586, -0.006836, 0.02246, 0.01074, 0.004883, -0.1211, -0.4229, -0.167, 0.003906, -0.10156, 0.004883, 0.1729, 0.3604, 0.2461, 0.00586, -0.003906, 0.0, -0.001953, 0.00879, 0.01563, -0.009766, 0.00293, 0.01758, 0.0, -0.000977, -0.001953, -0.012695, 0.006836, -0.000977, -0.006836, 0.01074, 0.00586, 0.05957, 0.0332, 0.01855, 0.02148, -0.01563, -0.01563, -0.03125, -0.0332, -0.00586, 0.0332, 0.412, 0.1475, 0.03516, 0.125, 0.02734, -0.1299, -0.377, -0.2402, 0.03613, 0.003906, 0.01074, 0.0459, 0.03223, 0.02246, 0.0459, 0.05273, 0.0664, 0.03223, 0.02246, -0.01074, 0.01855, 0.02832, -0.01367, 0.003906, -0.02051, -0.02246, 0.0, -0.004883, 0.006836, -0.00293, 0.003906, -0.007812, 0.000977, -0.00293, -0.006836, -0.1758, -0.4434, -0.1982, 0.06934, 0.0654, 0.0674, 0.11523, 0.3242, 0.1875, 0.02734, 0.0293, -0.01465, 0.03418, 0.02441, -0.02637, 0.009766, 0.00293, -0.02051, 0.02637, 0.02637, -0.001953, 0.02051, 0.02637, -0.01172, -0.009766, -0.02246, -0.02051, 0.03516, 0.1094, 0.02441, 0.0459, 0.1318, 0.02832, -0.02148, 0.04883, -0.01758, -0.02441, 0.0586, 0.03516, -0.08105, 0.08594, 0.0537, -0.0664, -0.01465, 0.01855, 0.03027, 0.02148, -0.01465, 0.02832, 0.02832, -0.01563, -0.00586, -0.01074, -0.02344, 0.1094, 0.3926, 0.1475, 0.0918, 0.1719, 0.11426, -0.2148, -0.4912, -0.3184
};

const float real_l1_bias[32] = {
    0.0, 0.0, 0.0, 0.0, 0.0, 0.0, 0.0, 0.0, 0.0, 0.0, 0.0, 0.0, 0.0, 0.0, 0.0, 0.0, 0.0, 0.0, 0.0, 0.0, 0.0, 0.0, 0.0, 0.0, 0.0, 0.0, 0.0, 0.0, 0.0, 0.0, 0.0, 0.0
};

const float real_l2_weights[9216] = {
    0.0664, -0.02734, -0.001953, 0.04004, -0.03516, -0.0371, 0.01172, 0.02344, -0.042, -0.01074, 0.1289, 0.07715, -0.03125, -0.01953, -0.03027, -0.04102, -0.04395, -0.1035, 0.003906, -0.0752, -0.003906, -0.0166, 0.01855, -0.02344, 0.004883, 0.05566, 0.001953, -0.01563, 0.1475, -0.03613, -0.05176, -0.09766, -0.0781, -0.02246, -0.02344, -0.04492, -0.009766, 0.167, 0.0654, 0.01074, -0.0801, 0.01855, 0.012695, -0.05664, -0.02344, -0.01074, -0.003906, -0.00879, -0.03418, 0.01172, -0.02344, -0.004883, 0.1211, -0.01367, 0.006836, 0.0947, 0.04395, 0.02246, 0.0371, -0.01953, -0.01465, -0.003906, -0.00879, 0.01758, -0.03418, 0.04492, -0.04102, -0.04297, -0.05957, 0.003906, 0.009766, -0.0381, 0.012695, 0.007812, 0.03223, -0.00293, -0.009766, 0.04297, -0.0, -0.01953, -0.006836, -0.03223, 0.11426, 0.04297, -0.03027, 0.05078, 0.0381, 0.000977, 0.04492, -0.007812, 0.01074, -0.0498, 0.02734, -0.01953, -0.004883, -0.01367, -0.02832, -0.00586, -0.00879, -0.00586, -0.03516, -0.03125, -0.01172, 0.02246, -0.02344, -0.01367, 0.01172, 0.02051, 0.0498, 0.07324, 0.012695, -0.003906, -0.08203, -0.02441, -0.04688, -0.05957, -0.01563, -0.03223, 0.02246, 0.00293, -0.001953, -0.06934, 0.02441, 0.02637, -0.03223, 0.02246, 0.01465, 0.02637, -0.01367, -0.02734, -0.0674, -0.02246, -0.0381, -0.02539, 0.00293, -0.1113, -0.03906, 0.0664, -0.007812, -0.02832, -0.01563, 0.0537, 0.042, -0.0371, 0.00586, 0.0547, 0.03516, -0.02051, -0.01758, 0.02344, -0.012695, -0.02051, 0.02148, -0.04102, 0.02539, 0.1045, -0.01758, -0.05566, -0.03223, -0.007812, -0.02539, -0.006836, 0.02441, -0.05762, 0.00879, 0.01855, -0.0381, 0.02246, -0.02344, 0.012695, -0.00586, -0.003906, -0.07227, -0.0537, 0.02051, -0.01074, -0.0781, 0.03027, 0.0879, 0.00879, -0.01367, 0.01563, -0.03027, -0.02344, -0.2295, -0.06445, 0.012695, -0.10547, -0.001953, -0.009766, 0.03418, -0.04883, -0.03027, 0.04004, -0.04004, 0.04492, 0.05957, 0.004883, 0.000977, 0.084, 0.02246, -0.01465, 0.03125, 0.0381, -0.001953, 0.007812, 0.012695, 0.00293, -0.084, -0.012695, 0.01172, 0.03516, 0.00293, -0.02637, 0.04883, 0.02246, 0.08594, 0.05762, -0.05957, 0.01563, -0.001953, 0.01758, -0.05957, -0.0459, 0.0664, -0.01074, -0.009766, 0.06934, -0.003906, 0.01563, 0.0674, 0.003906, 0.01855, -0.02539, 0.007812, -0.0879, -0.0498, 0.02246, -0.02148, 0.04492, -0.01172, -0.00586, 0.01855, -0.01953, 0.0781, 0.01172, -0.04297, 0.05176, -0.02246, -0.012695, 0.0703, 0.02441, -0.02148, -0.0537, -0.03516, -0.03906, 0.04395, 0.003906, 0.01563, 0.01953, -0.00586, 0.0635, -0.1201, 0.012695, 0.01172, -0.2178, -0.01172, -0.012695, -0.0742, -0.05566, -0.004883, -0.03027, -0.04785, -0.009766, -0.02051, -0.02051, 0.003906, -0.042, -0.0293, -0.05664, -0.1348, -0.04102, 0.007812, 0.000977, 0.01758, 0.04102, -0.02344, 0.02637, -0.05957, -0.02441, -0.003906, -0.01172, 0.07324, 0.167, -0.02539, -0.01074, -0.04883, -0.03516, 0.03223, -0.042, 0.0371, 0.1172, 0.09766, -0.01172, -0.0635, -0.03027, -0.006836, 0.00293, 0.03125, 0.1094, 0.04883, -0.1318, 0.0332, 0.003906, -0.007812, 0.006836, 0.03027, -0.0381, 0.0635, 0.042, -0.0537, 0.0459, 0.0166, -0.00293, -0.01855, -0.02539, 0.06055, -0.000977, 0.0537, 0.06055, -0.01855, -0.000977, 0.01758, 0.04492, -0.06055, -0.0166, 0.1113, -0.0381, 0.01465, 0.04395, -0.0381, -0.02344, -0.01074, -0.001953, -0.007812, 0.012695, 0.0801, 0.06055, -0.000977, 0.01465, -0.01465, 0.0, 0.001953, -0.02832, 0.001953, -0.168, -0.01758, -0.03516, -0.03516, -0.0674, -0.0293, 0.0713, -0.01563, -0.03906, 0.00879, 0.00586, 0.04785, 0.0654, 0.02539, 0.004883, -0.0381, -0.01953, -0.03223, -0.083, 0.0166, -0.02441, 0.01367, 0.009766, -0.0459, 0.0635, 0.02441, 0.0459, 0.083, 0.01367, -0.0586, 0.02832, 0.01953, -0.012695, -0.08594, -0.0713, 0.0293, -0.0293, -0.04004, 0.05957, -0.007812, 0.0293, -0.01758, -0.00293, -0.01758, -0.0166, -0.10156, -0.01563, -0.06152, 0.0498, 0.0332, 0.03418, 0.02441, 0.01465, 0.02441, 0.0791, -0.02148, -0.000977, 0.000977, 0.007812, -0.0166, -0.012695, 0.004883, -0.08984, 0.02637, 0.00879, 0.007812, 0.0801, -0.02344, -0.012695, -0.03223, -0.004883, 0.04785, -0.05566, -0.0498, 0.07324, 0.01563, -0.01367, 0.02734, 0.05176, -0.0166, -0.03906, -0.05176, -0.004883, -0.02734, 0.0654, 0.04395, -0.003906, -0.04004, 0.000977, -0.0166, 0.0381, 0.042, 0.00586, -0.03223, -0.0371, 0.0537, -0.02539, -0.0293, -0.03613, 0.007812, 0.004883, 0.02539, 0.03027, 0.0166, -0.0, 0.02344, 0.04395, 0.01074, 0.01855, 0.02539, 0.000977, -0.03906, -0.04395, -0.04102, -0.0381, -0.01563, 0.1221, 0.11914, -0.1113, -0.01855, 0.04395, 0.02539, 0.02344, 0.02441, 0.04883, -0.126, -0.1768, -0.02832, -0.02441, -0.03516, 0.02051, -0.0547, -0.04102, -0.01563, 0.001953, -0.02344, -0.0381, 0.02246, 0.003906, -0.02441, 0.0996, 0.006836, -0.012695, 0.1045, 0.00586, -0.06836, 0.04102, 0.0381, -0.00293, -0.00293, -0.02441, -0.0674, 0.0996, 0.1348, -0.02246, -0.042, 0.007812, 0.006836, -0.02344, -0.0586, -0.05566, -0.03223, -0.01953, -0.0635, 0.01855, -0.0, -0.01563, 0.003906, -0.0625, -0.01465, -0.042, -0.127, -0.000977, 0.0293, -0.0742, -0.009766, -0.04004, -0.04492, -0.03613, 0.04785, 0.0635, -0.00293, -0.01465, 0.01758, -0.02344, 0.004883, -0.0586, -0.02637, 0.03613, 0.0547, 0.03223, 0.00293, -0.02539, -0.08887, -0.006836, -0.009766, 0.01465, -0.01367, 0.01953, 0.0869, 0.04004, 0.02832, -0.003906, -0.004883, 0.0762, 0.04883, 0.0371, 0.03906, -0.09375, -0.009766, -0.0547, -0.06152, 0.01563, 0.02441, 0.04395, 0.04297, -0.0713, -0.0537, 0.03223, -0.02832, -0.01367, 0.02051, 0.0459, 0.01074, 0.02051, 0.03027, -0.00293, -0.02539, -0.06836, 0.006836, 0.01563, 0.02539, -0.00879, -0.04492, 0.04102, -0.02832, -0.04492, -0.007812, 0.01172, -0.02148, -0.03516, 0.00879, 0.0293, -0.00293, -0.0381, 0.02344, 0.03223, -0.0166, 0.007812, -0.001953, 0.00879, -0.0166, -0.04297, 0.01953, 0.00586, -0.01465, 0.00293, -0.003906, -0.0, -0.001953, -0.01172, -0.01465, 0.01758, 0.02246, -0.02637, -0.02832, -0.01074, 0.02637, -0.00293, -0.01855, 0.0371, 0.009766, -0.02148, -0.02637, -0.000977, -0.02539, -0.03027, 0.001953, 0.000977, -0.006836, -0.04004, 0.06445, 0.06836, 0.03125, 0.01758, -0.012695, -0.012695, -0.03613, -0.05762, 0.001953, 0.04102, 0.04297, -0.012695, 0.003906, 0.08496, 0.01953, 0.04102, 0.0762, 0.05273, -0.0742, -0.169, -0.02344, -0.042, -0.05762, -0.012695, 0.0, -0.1201, -0.0918, 0.042, 0.2051, 0.02246, 0.02051, 0.0332, -0.00293, -0.01953, -0.01367, 0.01563, 0.01074, -0.00293, -0.01074, -0.04785, -0.1533, -0.083, -0.05273, -0.2002, -0.00293, 0.03027, 0.252, 0.0664, -0.02051, -0.02539, -0.01563, 0.00586, 0.006836, -0.01172, -0.01758, 0.02246, -0.007812, -0.003906, -0.04688, -0.003906, 0.01758, -0.04492, -0.01953, 0.0371, 0.02441, 0.03223, -0.01563, 0.01074, -0.01172, -0.00586, 0.03613, 0.05762, -0.02441, -0.0957, -0.02441, -0.02148, 0.04102, 0.0293, -0.02832, 0.007812, -0.05664, -0.0, -0.007812, 0.03223, 0.03027, 0.05957, -0.0166, 0.02246, 0.10547, 0.0742, -0.0293, -0.1387, -0.0498, -0.001953, -0.01172, -0.0166, -0.01758, -0.06152, -0.01465, 0.01367, 0.04492, 0.02246, -0.04102, -0.000977, 0.00879, 0.00879, 0.0371, -0.02832, 0.01563, 0.00293, -0.009766, -0.03516, 0.02637, 0.01172, 0.06445, 0.003906, 0.007812, 0.004883, -0.0781, -0.02734, 0.01367, -0.01074, -0.00879, -0.00586, -0.02051, -0.01367, 0.004883, 0.01855, -0.02734, -0.001953, -0.01855, -0.00293, -0.001953, -0.0293, -0.01367, -0.01367, -0.03027, -0.04785, -0.01855, -0.009766, 0.000977, -0.006836, 0.00879, -0.0498, 0.042, 0.00586, -0.0654, 0.00879, -0.004883, 0.00293, 0.003906, -0.000977, 0.02051, -0.02051, -0.03027, 0.001953, 0.001953, -0.01074, -0.001953, 0.02539, 0.02441, 0.01953, -0.000977, -0.01172, -0.01074, 0.001953, -0.01367, 0.00586, 0.01855, -0.0166, 0.04102, -0.03027, -0.02148, 0.01074, -0.02344, 0.05176, 0.009766, -0.007812, 0.0, -0.007812, -0.01074, -0.0586, 0.0332, 0.006836, 0.03418, 0.0293, -0.02148, 0.01758, 0.02441, 0.01855, -0.01074, -0.012695, 0.02441, 0.0801, -0.02539, -0.05566, 0.1494, 0.03027, -0.1562, -0.2295, -0.1201, 0.01465, 0.01855, -0.03027, -0.0371, 0.02832, 0.0293, -0.000977, 0.000977, -0.02832, -0.012695, -0.01758, -0.02637, -0.03027, -0.0459, -0.02051, 0.03027, 0.0293, 0.01074, 0.001953, -0.02148, -0.003906, -0.02148, 0.01855, -0.0459, 0.02344, 0.001953, -0.02148, 0.00879, -0.05176, 0.02734, 0.0752, 0.01074, -0.003906, 0.01074, 0.02832, 0.0166, -0.00879, 0.1904, 0.0908, -0.07715, -0.04883, 0.01758, -0.06152, -0.08496, -0.00586, 0.01563, 0.0537, 0.01367, -0.0625, 0.05664, -0.02344, -0.03125, -0.00879, -0.03613, 0.02246, 0.00879, -0.01563, 0.02832, 0.0459, 0.03613, 0.01953, 0.02832, 0.03125, 0.007812, 0.1035, 0.001953, -0.04297, -0.0752, -0.0742, 0.004883, -0.03027, -0.00293, 0.01953, -0.00586, -0.0166, -0.03418, 0.0928, -0.006836, 0.03418, 0.01953, -0.00879, 0.001953, 0.03516, 0.02051, -0.01367, -0.01855, -0.000977, -0.02539, 0.00879, 0.01855, -0.001953, -0.03906, 0.00879, 0.00293, 0.001953, -0.084, -0.05957, 0.01758, -0.05078, -0.02441, -0.00293, -0.007812, 0.02637, -0.0625, 0.06055, 0.02246, 0.0586, -0.00586, -0.00879, 0.1084, -0.03223, -0.01074, -0.06055, -0.00586, 0.02344, 0.02148, -0.00293, 0.03906, 0.02441, 0.006836, 0.0293, 0.06055, -0.02441, -0.004883, 0.0293, 0.00586, 0.004883, 0.0664, 0.02246, -0.06836, -0.03613, 0.000977, 0.00879, 0.007812, -0.00586, -0.01465, 0.1357, 0.02051, 0.00586, -0.1543, -0.03125, -0.02539, -0.01172, -0.01563, -0.0332, 0.02734, -0.01074, 0.012695, -0.07324, -0.03027, 0.00293, -0.0371, -0.000977, -0.0293, 0.08496, -0.125, 0.01367, -0.003906, 0.01367, -0.001953, -0.009766, -0.03027, -0.04004, 0.0908, 0.01465, -0.06836, -0.007812, -0.083, 0.00586, -0.012695, 0.04492, 0.003906, 0.0664, -0.06836, 0.01367, -0.0293, -0.004883, -0.02344, 0.01758, -0.01074, 0.02832, 0.03223, -0.0381, 0.01563, -0.0625, -0.00879, 0.003906, -0.00293, -0.0332, 0.007812, -0.05273, 0.0498, 0.009766, 0.001953, 0.02246, 0.0371, -0.01953, 0.03516, -0.007812, -0.1826, -0.03027, -0.0166, 0.08887, 0.1045, 0.0332, 0.0654, 0.04492, 0.0166, 0.0996, 0.0, -0.03418, 0.0381, 0.0, 0.01367, 0.000977, 0.02832, -0.0459, -0.02344, -0.02148, 0.004883, -0.04688, -0.02051, 0.02637, 0.0664, -0.01758, -0.04102, 0.0498, 0.02637, -0.01172, -0.04688, -0.04785, -0.0293, 0.00879, -0.012695, 0.06152, 0.05957, -0.02051, -0.09375, -0.0674, 0.02148, -0.03906, 0.01465, 0.02344, 0.04492, 0.0957, 0.02637, -0.03418, -0.03125, 0.02441, 0.00293, -0.02734, 0.01758, -0.009766, 0.1504, 0.0586, -0.0498, -0.08984, -0.0908, 0.004883, -0.04102, -0.0498, -0.01855, -0.01367, -0.04004, -0.01074, 0.006836, 0.0371, 0.04492, 0.1162, 0.06934, -0.04785, 0.006836, 0.006836, -0.02344, 0.06934, -0.0166, -0.007812, -0.003906, -0.00293, 0.004883, 0.01953, -0.01465, 0.012695, -0.004883, -0.000977, -0.001953, 0.04883, 0.04004, 0.007812, 0.02734, 0.05957, -0.01563, -0.1338, -0.02441, -0.006836, -0.02637, 0.009766, -0.05176, -0.1084, -0.05762, 0.0459, 0.03906, 0.03613, 0.03516, 0.0498, 0.02832, -0.01953, -0.01465, -0.02246, -0.001953, -0.009766, -0.000977, 0.0371, 0.03906, -0.012695, -0.01074, -0.02734, 0.004883, 0.001953, 0.03418, 0.001953, -0.05078, -0.02051, 0.0742, -0.04688, -0.0713, 0.01855, -0.000977, -0.06836, 0.0586, 0.006836, 0.0918, 0.126, -0.012695, 0.004883, 0.05176, -0.01172, 0.0459, 0.07227, 0.01563, 0.0332, 0.01855, -0.04297, 0.001953, -0.009766, -0.001953, -0.084, -0.001953, 0.05664, -0.0537, -0.0586, 0.006836, 0.084, 0.01953, -0.007812, -0.02246, 0.01172, -0.04395, 0.08594, 0.01074, 0.04004, 0.01172, -0.0166, -0.01758, -0.05566, -0.0547, -0.007812, -0.04004, 0.1426, -0.009766, -0.07227, 0.003906, 0.001953, -0.02539, 0.00293, -0.001953, -0.02246, 0.02246, -0.001953, 0.0498, 0.01074, -0.012695, -0.0547, -0.02148, -0.01855, -0.02539, 0.04785, -0.02148, -0.0752, -0.02539, -0.01563, -0.03223, -0.006836, 0.01855, 0.01172, -0.02344, -0.001953, 0.02539, -0.01758, 0.04004, 0.001953, -0.03125, 0.05957, -0.012695, 0.01367, 0.04004, -0.06152, -0.02637, -0.012695, -0.125, -0.0674, -0.006836, -0.1289, -0.04883, -0.01465, -0.0293, 0.01758, 0.009766, 0.006836, -0.01172, -0.0166, -0.00293, 0.00586, -0.042, -0.0918, 0.00586, -0.0371, -0.05664, 0.042, -0.03516, 0.0625, 0.0381, -0.01074, 0.0166, 0.00586, -0.01172, 0.007812, -0.02051, -0.003906, 0.02734, -0.05273, -0.03516, 0.02539, 0.01074, -0.05664, 0.0166, -0.02832, -0.02734, 0.02539, -0.1367, -0.006836, -0.0781, -0.012695, -0.00879, -0.1523, 0.01465, -0.01563, -0.09375, 0.1396, -0.01172, -0.02832, 0.01465, 0.01563, -0.009766, 0.0293, 0.03418, -0.02148, -0.03906, -0.001953, 0.0781, 0.04688, 0.03516, 0.0332, -0.04004, -0.009766, 0.08887, -0.02246, -0.03613, -0.05566, -0.03027, 0.02734, -0.02051, 0.01367, -0.01758, -0.0703, 0.02051, 0.03516, 0.05762, 0.00586, 0.01465, 0.02637, -0.0918, -0.00586, -0.0957, -0.11426, -0.02344, -0.0537, -0.01172, -0.01953, -0.0713, -0.02441, 0.02539, 0.03613, 0.02832, 0.00586, 0.04492, 0.01953, 0.003906, 0.001953, -0.003906, 0.0166, 0.04004, -0.05762, -0.01855, 0.03125, 0.01074, -0.004883, -0.02246, 0.0371, 0.03613, 0.012695, 0.04102, 0.003906, 0.0332, 0.01074, 0.02734, 0.06445, -0.02441, 0.003906, -0.0947, -0.03027, 0.01758, -0.0586, -0.03027, -0.02539, 0.001953, 0.03613, -0.02148, -0.01563, -0.01074, -0.04102, -0.03516, 0.0166, -0.01074, -0.05176, -0.004883, -0.02832, -0.00879, 0.0547, 0.02344, -0.0996, -0.02441, 0.0547, 0.01074, -0.04688, -0.004883, 0.0635, -0.04004, 0.02734, 0.01465, -0.05664, -0.000977, -0.02344, 0.01465, -0.003906, -0.04492, 0.06152, 0.004883, -0.000977, 0.00586, 0.001953, -0.02734, -0.00586, 0.02734, -0.0869, 0.003906, -0.03906, -0.01074, 0.01074, 0.02637, -0.0654, 0.0459, -0.02051, 0.0742, 0.0664, 0.03516, 0.003906, -0.0332, -0.02148, 0.05176, -0.04785, -0.01465, -0.01074, -0.10547, 0.03418, -0.000977, -0.05176, -0.006836, 0.02441, -0.08203, -0.02441, 0.1172, -0.05078, -0.04492, -0.08105, 0.0703, -0.04297, -0.03223, 0.0635, 0.02441, -0.02051, 0.01953, -0.01465, -0.02246, -0.01758, -0.01758, -0.0713, 0.1133, -0.02539, -0.03516, -0.012695, 0.00586, -0.00879, 0.01563, -0.02637, 0.0762, 0.01953, -0.0166, -0.00293, 0.01953, -0.006836, 0.01172, -0.02832, -0.0, 0.01563, 0.001953, -0.0293, -0.000977, 0.0781, 0.02051, -0.006836, -0.03516, -0.00293, -0.05762, -0.001953, -0.000977, 0.01563, 0.02637, 0.03027, 0.009766, -0.0654, 0.01367, -0.04395, 0.012695, 0.02637, -0.02734, 0.04004, 0.00293, -0.04883, 0.03516, -0.03418, -0.02148, 0.1729, -0.000977, -0.01074, -0.009766, -0.01367, -0.003906, -0.004883, 0.0, 0.01172, -0.0381, -0.01953, -0.00879, 0.01563, -0.01465, -0.0381, 0.01563, -0.0762, -0.083, 0.1543, -0.0371, -0.0166, -0.009766, 0.001953, 0.0293, 0.04004, -0.02832, -0.02246, 0.1602, -0.0332, -0.00879, -0.08105, 0.01855, 0.007812, -0.0781, 0.0635, 0.12305, -0.209, 0.04297, 0.0371, -0.0332, 0.000977, 0.06445, 0.00293, 0.02051, 0.00586, -0.10645, 0.004883, -0.01172, 0.02832, 0.03906, 0.01172, -0.004883, -0.10254, -0.02637, 0.1816, -0.03027, -0.0293, -0.004883, -0.012695, -0.01855, 0.04297, -0.01465, 0.003906, 0.01172, -0.01758, 0.0459, -0.00879, 0.01465, 0.003906, -0.0459, 0.00293, 0.05273, -0.05762, 0.02539, -0.000977, -0.04883, 0.001953, -0.01465, -0.007812, 0.02051, -0.04004, 0.02441, -0.0166, -0.0752, -0.001953, -0.00293, -0.01074, -0.04785, -0.04004, -0.0947, 0.11816, 0.03223, -0.03906, -0.00586, -0.0332, -0.05176, 0.08203, -0.04004, -0.08496, 0.1123, -0.001953, 0.01074, 0.006836, -0.02832, -0.04102, 0.01074, -0.0947, -0.06445, 0.1348, -0.009766, -0.04395, -0.04785, -0.02734, -0.02441, -0.001953, 0.0166, 0.05078, -0.04102, 0.02246, -0.02832, -0.00879, 0.000977, 0.06055, 0.02051, -0.02539, 0.02539, 0.03027, -0.02539, 0.042, -0.01563, -0.01758, -0.03125, -0.03516, 0.000977, -0.0, 0.11914, 0.02734, -0.0498, -0.003906, -0.000977, 0.0537, -0.06152, 0.02539, 0.01367, -0.0166, -0.02344, -0.01465, 0.01563, -0.00586, -0.00879, 0.03125, 0.05566, -0.03613, -0.05566, 0.000977, -0.00293, 0.0, -0.007812, 0.02246, -0.0498, -0.02148, -0.03027, 0.01074, 0.003906, -0.0166, -0.04883, 0.009766, -0.03418, 0.03906, -0.01855, -0.0, -0.04297, -0.01172, -0.02148, 0.01172, 0.009766, -0.06152, -0.06055, 0.02832, -0.0879, -0.03516, 0.00586, -0.1201, -0.1719, 0.009766, 0.00586, -0.003906, -0.009766, -0.02344, -0.0, 0.01074, -0.02051, 0.0293, -0.02441, 0.0166, 0.0166, 0.0459, 0.0332, -0.1533, -0.01758, 0.04102, 0.04102, 0.007812, -0.02246, 0.01074, 0.02734, 0.02344, -0.03418, 0.02051, 0.001953, -0.04785, 0.01758, 0.0381, -0.02441, 0.006836, -0.02344, 0.02344, 0.01172, 0.02246, 0.01563, -0.0459, -0.03516, 0.0, 0.01172, 0.006836, -0.00293, -0.02344, -0.006836, 0.03516, 0.000977, -0.02539, -0.03418, -0.02051, 0.1367, -0.0371, -0.0713, 0.004883, 0.02734, -0.03516, -0.00879, 0.01855, -0.012695, 0.0371, -0.007812, -0.0381, 0.02148, 0.0537, -0.03418, -0.02832, -0.01465, -0.01172, -0.0498, 0.05176, 0.01758, -0.0703, -0.02734, -0.0371, -0.02246, 0.0371, -0.0371, 0.1113, 0.01367, 0.01465, -0.0166, 0.04102, -0.0166, -0.001953, 0.03223, -0.0586, 0.04395, 0.042, -0.02539, 0.0371, 0.009766, -0.01465, 0.004883, -0.02832, -0.02051, 0.05273, 0.02246, 0.03027, -0.0498, -0.02344, -0.02539, 0.02051, -0.004883, -0.04102, 0.0879, -0.01953, 0.00586, -0.00586, -0.01855, 0.01074, 0.00879, -0.02539, -0.0664, 0.11523, -0.02148, 0.004883, -0.03613, -0.02441, -0.006836, -0.0381, -0.02637, -0.06055, 0.0967, 0.0293, -0.05078, 0.02539, 0.003906, -0.009766, 0.0166, -0.00293, -0.04688, 0.04492, 0.01465, 0.00293, -0.0166, -0.04297, -0.01074, -0.00293, -0.042, 0.009766, -0.02637, -0.05664, 0.000977, 0.04492, -0.0332, 0.02344, -0.01172, -0.02344, -0.02344, 0.004883, 0.02637, 0.01172, 0.01367, 0.01465, -0.001953, -0.0166, 0.01172, -0.0459, -0.012695, 0.0293, 0.009766, 0.01855, 0.001953, 0.01563, -0.01855, -0.009766, -0.07715, -0.0459, -0.02148, -0.04785, 0.0332, 0.01953, -0.003906, 0.02637, 0.01367, -0.0166, -0.1074, 0.03125, -0.01953, 0.07324, 0.03516, 0.06934, 0.00293, 0.01953, 0.01563, 0.10645, -0.02344, 0.007812, -0.009766, 0.02734, 0.004883, 0.001953, -0.01855, 0.000977, -0.00586, 0.012695, 0.00293, 0.0703, -0.03613, 0.003906, 0.02148, -0.0498, 0.0166, -0.0996, -0.0166, -0.00586, 0.02441, -0.0586, -0.0, 0.03418, 0.02441, 0.06836, -0.0703, -0.01855, 0.04102, 0.05078, 0.0625, 0.05273, 0.001953, -0.04004, 0.0742, -0.1602, -0.02441, 0.04688, -0.0459, -0.0762, 0.0498, -0.04102, 0.01758, -0.03223, -0.0166, 0.0371, -0.06152, 0.0918, 0.02637, 0.001953, 0.04883, -0.001953, 0.0742, 0.01953, -0.03223, 0.0498, -0.11523, -0.05566, -0.004883, -0.04785, -0.01367, -0.00293, -0.02441, 0.05957, 0.0166, -0.03027, -0.03027, 0.01465, 0.042, 0.0332, -0.0762, 0.1553, 0.00879, 0.03223, 0.0664, 0.006836, 0.02539, -0.004883, -0.02148, -0.08887, 0.07227, 0.01172, -0.05762, 0.124, 0.0332, -0.02441, -0.00879, 0.01758, 0.01172, -0.01172, 0.0879, -0.00293, 0.01172, 0.02344, -0.03125, 0.02051, 0.01953, -0.01563, -0.004883, 0.01953, -0.03418, -0.01563, 0.01465, -0.000977, -0.0166, -0.007812, 0.00293, 0.007812, -0.02637, -0.04102, -0.012695, -0.02734, 0.05078, 0.000977, -0.01074, -0.05176, -0.01953, -0.0166, -0.0332, 0.000977, -0.01758, -0.012695, 0.05176, 0.02148, 0.01465, -0.009766, -0.01758, -0.1006, 0.01172, 0.07324, 0.0703, 0.0996, 0.00879, 0.0654, -0.1787, -0.05176, 0.0654, -0.04785, -0.0166, 0.0674, -0.00879, -0.03906, 0.06934, -0.1133, -0.0625, 0.04395, -0.01367, -0.012695, 0.01953, -0.02441, -0.02148, -0.01074, -0.06934, -0.03418, -0.0332, -0.01563, -0.02441, -0.01074, -0.02344, 0.01855, 0.01465, -0.0801, 0.01367, 0.0537, -0.01855, 0.0166, -0.01563, -0.02832, 0.00586, 0.02539, -0.02637, 0.02734, 0.001953, 0.00879, 0.009766, 0.007812, -0.03125, -0.02344, 0.0332, 0.06152, 0.03418, 0.04102, 0.02051, 0.05762, 0.02051, 0.0713, 0.0293, 0.012695, 0.05762, -0.02832, 0.012695, 0.00293, 0.04297, 0.01367, -0.01563, 0.01953, 0.0459, 0.06934, -0.00879, -0.000977, -0.04785, 0.012695, -0.02148, -0.03125, 0.004883, -0.04492, -0.11426, -0.06055, -0.01367, -0.009766, -0.04102, 0.01367, -0.05664, -0.01172, -0.02051, -0.0654, 0.003906, -0.006836, 0.0166, 0.001953, -0.05176, 0.02539, 0.00879, 0.03613, 0.1709, 0.02539, 0.0293, 0.05664, 0.00293, 0.0703, 0.0879, -0.0332, 0.0, 0.1582, -0.01367, -0.02246, 0.0459, 0.02051, -0.001953, -0.001953, -0.02344, -0.004883, -0.04395, -0.009766, 0.01563, -0.042, -0.009766, -0.05078, -0.04492, 0.04004, 0.0781, 0.1611, 0.03906, 0.05957, 0.02246, -0.04492, 0.01074, -0.004883, 0.001953, 0.02441, 0.083, 0.03027, -0.00586, 0.02441, 0.01563, -0.06152, -0.06836, -0.04004, -0.11523, -0.2236, -0.1221, -0.06836, -0.1514, -0.1299, 0.02246, 0.00586, 0.001953, -0.00879, -0.0654, -0.06934, -0.00879, 0.01563, -0.02637, 0.02441, 0.0371, 0.01367, -0.01563, -0.05566, 0.0332, 0.01953, 0.01855, -0.004883, -0.04492, -0.02148, 0.001953, -0.02539, 0.02148, -0.006836, -0.01953, 0.03027, -0.04004, 0.009766, 0.01953, 0.01758, -0.01172, -0.003906, 0.03516, 0.00293, 0.03027, -0.01563, 0.0293, 0.0459, -0.000977, 0.04004, -0.009766, 0.04395, 0.012695, 0.1172, -0.01172, -0.04297, 0.0166, 0.02148, -0.03516, -0.02539, -0.05762, -0.04395, -0.0371, -0.0, -0.006836, 0.00879, -0.00586, -0.04395, -0.06934, -0.03516, 0.02246, 0.02637, -0.0, 0.042, -0.000977, 0.01367, -0.01465, -0.0293, -0.01172, -0.06055, 0.04492, -0.02539, -0.0908, -0.1279, -0.03125, -0.05762, -0.1211, -0.0762, 0.01953, -0.09766, -0.04102, -0.02539, -0.05566, 0.0293, 0.03027, -0.0742, 0.0381, 0.007812, 0.03516, 0.000977, -0.0293, -0.01367, 0.007812, -0.01172, 0.01563, 0.02051, -0.012695, 0.05078, 0.012695, -0.01367, -0.007812, -0.006836, 0.01172, -0.1113, -0.02832, 0.02832, -0.003906, 0.04102, -0.0371, -0.0664, 0.007812, 0.01074, -0.0166, 0.02344, 0.04297, -0.0957, 0.006836, -0.003906, 0.02734, 0.02734, 0.04688, -0.04688, 0.06055, 0.004883, -0.04492, -0.0166, 0.04102, -0.05566, -0.02246, 0.0781, 0.1826, 0.03516, -0.02246, 0.02832, 0.0293, 0.01367, 0.02344, 0.04004, -0.0, -0.11426, -0.02344, 0.001953, 0.00879, -0.001953, -0.02637, 0.03125, -0.02832, -0.04883, 0.0801, 0.004883, -0.0293, -0.00293, -0.06836, -0.003906, -0.00293, -0.01855, -0.00293, -0.01465, -0.02637, -0.02441, 0.000977, -0.02539, -0.01074, 0.04688, -0.042, -0.00293, 0.02051, -0.01074, 0.02344, 0.01465, 0.04492, -0.03906, 0.02539, 0.007812, -0.03906, 0.000977, -0.02441, 0.006836, 0.02637, 0.00293, -0.00586, -0.02344, 0.01367, 0.00879, -0.02441, 0.012695, 0.02246, 0.04102, -0.05273, -0.0498, -0.05078, -0.01074, -0.04102, -0.0498, -0.007812, -0.04688, -0.0918, -0.03906, 0.03223, -0.01953, -0.02441, -0.02344, 0.004883, 0.01758, 0.003906, 0.04883, -0.001953, 0.02637, 0.0752, 0.009766, -0.006836, 0.0381, -0.04785, -0.001953, 0.04688, 0.009766, -0.01074, 0.06836, -0.0, 0.01563, 0.03418, -0.01758, 0.01953, 0.01367, 0.01172, -0.003906, 0.01563, -0.003906, -0.00879, -0.04102, -0.006836, 0.042, 0.01367, -0.01465, -0.003906, 0.0332, 0.0537, 0.01172, 0.0293, -0.0371, -0.06055, 0.0166, -0.04688, 0.06152, 0.0547, -0.012695, -0.0293, 0.1133, 0.02637, 0.001953, -0.006836, 0.007812, -0.01855, -0.0879, -0.01172, -0.05078, -0.1465, -0.0381, 0.02539, 0.1494, 0.03613, 0.0166, -0.05566, 0.03027, -0.004883, -0.0781, -0.02832, 0.04785, 0.06152, 0.03125, 0.04395, 0.02832, 0.0371, 0.0332, 0.00293, -0.01172, -0.05176, -0.03223, 0.01172, -0.00879, 0.007812, -0.05273, -0.08203, -0.04492, -0.0459, 0.03223, 0.09766, 0.01563, 0.03418, 0.003906, 0.00293, -0.01172, 0.0371, -0.02344, -0.000977, -0.003906, -0.00293, -0.02051, 0.04297, 0.0293, -0.05566, -0.0498, -0.02441, 0.05566, 0.02539, 0.0293, 0.00293, 0.0947, -0.004883, 0.02344, 0.0293, -0.04395, 0.0547, -0.0713, 0.007812, -0.003906, 0.0293, 0.0, -0.01953, -0.04395, 0.001953, 0.01855, -0.01074, 0.0166, -0.01953, -0.03125, 0.00293, -0.006836, -0.01465, -0.00293, -0.02637, -0.00293, 0.02441, -0.009766, -0.02051, -0.02246, 0.02441, -0.04297, -0.02246, 0.02539, 0.02539, 0.03613, -0.0371, -0.03613, 0.003906, -0.10254, -0.10547, -0.0996, -0.02148, 0.1318, -0.1045, 0.0166, 0.0332, -0.00293, -0.01465, 0.00586, -0.0713, -0.0371, 0.0967, 0.0879, -0.042, -0.04395, 0.01074, -0.01855, 0.001953, 0.001953, 0.003906, 0.00879, 0.02637, -0.0625, 0.01465, -0.00586, -0.009766, 0.02734, 0.01563, 0.03516, -0.0293, 0.004883, -0.01367, -0.0332, 0.02441, -0.0635, 0.01172, -0.007812, -0.02637, 0.05957, 0.02637, 0.00586, -0.004883, -0.09766, 0.01465, -0.00293, -0.03613, -0.03223, 0.0537, 0.007812, 0.0459, 0.1523, -0.01172, 0.02148, -0.03613, 0.009766, -0.08984, -0.3418, -0.05078, -0.02246, -0.01953, 0.01953, -0.0381, -0.01074, -0.02246, -0.006836, -0.007812, -0.02148, 0.02246, -0.0654, 0.042, 0.006836, -0.02539, 0.042, 0.00293, -0.00879, 0.00586, -0.01563, -0.0547, 0.02246, -0.012695, -0.05762, 0.01465, -0.0293, 0.02734, -0.004883, 0.007812, 0.01172, -0.004883, -0.04492, -0.01953, -0.0, -0.02246, -0.04297, 0.03125, -0.012695, 0.0713, -0.00879, -0.04785, -0.0674, -0.01172, 0.04883, -0.03418, 0.01855, -0.03027, 0.012695, 0.03125, -0.01074, -0.1494, -0.00879, -0.000977, 0.05078, -0.02832, -0.01074, 0.009766, -0.00586, -0.02148, 0.03613, 0.0, -0.012695, 0.02344, -0.04785, 0.01074, -0.00586, 0.01172, 0.003906, 0.01074, 0.05566, 0.00293, -0.04395, 0.02051, -0.012695, 0.01172, -0.06836, -0.02637, -0.083, -0.01465, 0.006836, -0.003906, 0.04492, -0.01172, -0.01953, 0.06055, 0.01074, 0.0586, 0.05273, 0.0586, 0.10254, -0.1123, -0.01172, -0.01172, -0.04004, 0.02539, -0.02148, 0.02148, -0.02246, 0.05957, -0.00586, -0.007812, -0.02637, 0.02246, 0.009766, -0.04785, -0.001953, -0.04883, 0.003906, 0.007812, -0.03516, 0.01465, 0.0, -0.007812, -0.012695, 0.0547, -0.0, -0.0332, -0.0781, 0.000977, 0.01172, 0.02734, -0.04004, 0.07324, 0.04688, -0.04883, 0.05273, -0.0371, -0.00879, 0.0459, -0.01563, 0.01563, -0.10645, -0.1201, -0.0498, -0.06152, 0.06836, 0.01953, 0.0, -0.03906, 0.0, 0.04785, 0.0381, 0.02637, 0.04102, 0.012695, 0.00879, -0.0381, -0.0957, -0.0293, 0.07715, 0.05176, 0.0781, 0.084, -0.05957, 0.012695, -0.012695, -0.006836, 0.006836, 0.02441, -0.0381, -0.02637, 0.03027, 0.000977, 0.00586, 0.02246, -0.01563, 0.01172, 0.0166, -0.0, -0.02832, -0.00293, -0.03613, 0.012695, -0.01367, -0.06152, -0.01855, 0.08984, -0.1719, -0.03613, -0.1514, -0.01367, -0.01855, -0.02441, 0.04785, 0.000977, -0.1006, 0.08984, 0.007812, 0.03906, 0.000977, -0.01172, -0.01758, 0.0166, -0.004883, -0.03027, -0.0762, -0.003906, -0.07715, 0.01758, 0.02148, -0.01563, 0.0459, -0.02246, 0.00586, -0.00293, 0.0381, 0.04297, -0.02832, -0.02148, -0.02051, -0.003906, -0.02734, -0.1348, 0.02637, -0.02734, 0.02441, 0.04785, 0.00293, 0.03516, 0.02539, 0.04297, 0.004883, -0.09863, -0.03613, -0.1406, -0.02148, -0.01563, 0.01465, -0.05566, -0.01367, -0.1133, -0.02344, 0.0332, -0.001953, -0.02539, 0.01855, 0.03125, 0.01367, 0.04883, 0.05957, 0.04004, -0.02051, -0.02734, -0.01367, 0.01172, 0.01074, -0.01465, -0.00293, 0.04297, 0.0371, 0.001953, -0.03223, 0.0166, 0.00586, 0.00293, 0.04297, 0.000977, -0.01465, -0.05957, -0.009766, -0.05957, -0.04492, -0.02637, 0.000977, -0.0762, -0.01953, 0.00586, 0.02539, 0.05664, 0.03906, -0.00586, -0.05176, -0.0674, 0.012695, -0.03125, -0.0713, 0.04785, -0.0547, -0.0586, 0.01074, 0.001953, -0.05176, 0.03516, 0.01074, -0.02051, -0.009766, 0.01465, -0.03516, 0.01465, -0.01953, 0.03027, -0.03906, 0.02637, -0.0371, -0.10547, 0.08203, -0.0547, -0.012695, 0.03027, 0.03223, -0.01367, 0.02734, -0.0781, -0.05664, 0.012695, -0.0967, 0.06934, 0.0371, 0.007812, 0.01563, 0.003906, -0.042, 0.11426, 0.04492, 0.05078, 0.042, -0.01367, 0.01367, -0.02441, 0.01758, 0.009766, -0.08594, 0.00293, -0.01758, 0.01367, 0.009766, -0.007812, -0.06934, -0.009766, -0.012695, -0.1211, 0.0332, -0.06445, -0.00879, 0.02148, -0.02441, 0.000977, -0.0537, -0.0, -0.02051, -0.00586, 0.04297, 0.03223, -0.04297, -0.003906, -0.01953, 0.01758, 0.042, -0.06055, -0.001953, -0.001953, -0.04883, 0.04785, 0.00293, 0.03125, 0.0742, -0.0371, 0.02344, 0.004883, -0.02441, 0.02051, -0.00293, 0.04395, -0.00293, -0.05664, -0.04492, -0.01758, 0.000977, -0.05273, -0.001953, 0.01758, 0.02832, -0.03027, 0.0166, 0.05664, 0.02051, -0.06152, 0.0781, 0.1035, -0.0332, -0.00879, -0.0537, 0.0293, -0.1523, 0.0166, 0.0332, 0.0586, -0.01367, 0.02148, 0.0537, -0.00293, -0.042, -0.03027, -0.02734, -0.00586, -0.009766, 0.00586, -0.01367, -0.007812, 0.0381, 0.00879, 0.1455, -0.03027, -0.08105, -0.001953, -0.00586, -0.083, -0.001953, -0.00879, -0.11914, -0.07324, 0.004883, 0.04297, -0.01465, -0.042, 0.05176, 0.00586, 0.012695, 0.0879, 0.083, 0.01758, -0.04395, -0.004883, -0.0654, -0.0293, 0.02051, 0.01172, 0.05176, 0.0459, 0.05957, 0.05762, 0.000977, 0.004883, -0.05762, 0.0547, 0.01855, -0.03223, 0.009766, 0.02246, 0.0166, -0.06055, 0.01367, -0.000977, -0.012695, -0.01563, -0.0, 0.0537, -0.04883, -0.01855, 0.03613, -0.01563, -0.01172, 0.01074, -0.03125, -0.012695, 0.009766, 0.00586, -0.001953, 0.02637, 0.00586, -0.04395, -0.02344, -0.02148, -0.02441, -0.01172, -0.000977, -0.003906, -0.009766, -0.01953, -0.04395, 0.006836, -0.02832, -0.02832, 0.05273, -0.0381, 0.01855, -0.01465, 0.0, -0.03027, 0.0166, 0.02246, -0.001953, 0.03516, 0.042, 0.02441, 0.03027, -0.012695, 0.003906, -0.000977, -0.00293, 0.01074, -0.0459, 0.04297, -0.03613, 0.05078, -0.02344, -0.02734, -0.0547, -0.0332, 0.004883, -0.124, -0.0381, 0.0381, 0.003906, -0.02637, 0.001953, 0.02441, -0.03516, 0.03027, 0.009766, 0.02344, -0.01563, -0.03906, -0.06055, -0.08887, 0.02246, 0.004883, -0.07227, -0.1406, -0.04883, -0.001953, 0.007812, 0.0166, 0.04297, -0.01172, -0.01172, -0.10645, 0.009766, 0.03125, -0.04297, -0.209, -0.02246, -0.05566, -0.01172, -0.00293, -0.04688, -0.1113, -0.042, -0.004883, -0.0928, -0.0791, 0.04395, -0.01758, -0.04102, 0.0332, -0.0703, 0.01953, -0.0166, -0.01953, -0.05566, 0.02344, -0.02148, -0.006836, 0.04785, -0.08984, 0.00879, -0.02246, 0.1396, 0.02832, 0.009766, 0.00293, 0.001953, -0.0381, -0.07324, 0.006836, -0.01172, -0.0762, -0.04883, 0.10156, -0.03027, 0.000977, 0.0293, 0.007812, 0.0166, -0.00586, 0.02441, 0.009766, -0.0654, 0.02051, -0.03125, -0.0674, -0.01953, -0.0459, 0.04688, 0.02051, 0.02832, -0.004883, -0.03027, 0.01563, 0.05957, 0.0918, 0.006836, -0.03027, 0.03125, 0.03223, 0.01953, -0.00586, 0.02051, 0.1484, -0.08887, -0.03418, 0.03516, 0.1094, 0.07324, -0.0459, -0.01465, -0.00879, -0.08594, -0.05273, -0.02246, 0.006836, -0.07715, -0.01563, -0.084, 0.006836, 0.009766, -0.06836, 0.02148, 0.02539, -0.04102, -0.03906, 0.0713, -0.03516, 0.0332, -0.004883, 0.004883, -0.1777, -0.07227, -0.001953, -0.001953, 0.02539, 0.009766, -0.04883, -0.05176, 0.007812, 0.02441, -0.05957, -0.007812, -0.02734, 0.003906, -0.004883, 0.03223, 0.02832, -0.042, 0.02441, -0.09863, 0.03906, 0.0293, -0.012695, 0.01855, 0.05078, 0.02441, 0.0762, 0.03223, 0.042, 0.07715, 0.007812, -0.0654, -0.03223, -0.05762, -0.0332, -0.02148, 0.05078, 0.1699, 0.02441, 0.09863, 0.0293, 0.02441, 0.001953, -0.01367, 0.04004, 0.1006, 0.01465, 0.00586, -0.04004, 0.02637, -0.00586, 0.01953, -0.007812, 0.0293, -0.05273, -0.02539, -0.0166, -0.012695, -0.0371, -0.0293, -0.01758, 0.01563, -0.0664, -0.05762, 0.0908, 0.02441, 0.07324, -0.03516, 0.04883, 0.03516, 0.004883, 0.05176, -0.04297, -0.042, -0.001953, -0.03906, -0.0654, 0.02344, 0.00879, -0.00293, 0.00879, 0.001953, -0.05762, -0.02734, -0.08887, -0.004883, -0.009766, 0.00586, -0.0166, -0.02637, 0.0332, -0.0498, 0.03223, 0.04004, 0.05176, -0.042, -0.00293, -0.0674, -0.04004, -0.0166, 0.04297, 0.03516, 0.0918, -0.003906, 0.02051, 0.04785, -0.00586, 0.04004, 0.1562, -0.0332, 0.03418, -0.00586, 0.004883, 0.01074, -0.00879, -0.02637, -0.00293, 0.000977, 0.02246, -0.0586, -0.02148, 0.02246, 0.02441, 0.0166, -0.01465, 0.03613, -0.0293, -0.0537, -0.0293, -0.083, -0.01074, 0.02734, 0.05566, -0.02734, 0.03516, 0.007812, -0.0498, -0.02734, -0.01953, 0.003906, -0.01953, 0.001953, 0.007812, 0.0293, 0.02441, -0.00879, -0.03027, -0.05078, -0.04004, -0.006836, -0.01563, -0.04688, 0.01074, 0.0791, -0.0547, -0.0332, -0.084, 0.000977, 0.02246, 0.01074, -0.01172, 0.01367, 0.1172, -0.01465, -0.02344, -0.04102, -0.05078, 0.000977, 0.04883, 0.02148, -0.006836, -0.1035, -0.04004, -0.02734, 0.0166, 0.01465, 0.004883, 0.01465, 0.02148, -0.02051, -0.0459, 0.01758, -0.0371, 0.006836, -0.0381, 0.007812, -0.000977, 0.02734, 0.02637, 0.0928, 0.04395, 0.0, -0.04102, -0.02148, 0.03125, -0.00879, -0.01855, 0.01563, -0.02734, -0.042, 0.04102, 0.01855, 0.0293, 0.01953, 0.02832, 0.01367, -0.04883, -0.03418, -0.04492, 0.03223, 0.10547, -0.05176, 0.0, -0.000977, 0.03516, -0.01953, 0.0459, 0.1094, 0.03125, 0.05176, -0.04102, 0.03516, 0.006836, -0.02051, 0.01172, 0.01074, -0.00293, 0.01563, -0.0547, -0.02539, -0.01074, 0.04102, 0.03223, -0.01758, 0.01172, 0.007812, 0.0371, 0.04004, 0.004883, -0.02148, 0.01563, -0.04883, 0.02246, -0.01074, 0.1475, 0.06055, -0.02246, -0.04102, 0.0166, 0.03613, 0.0166, 0.084, -0.0879, -0.1357, 0.04395, -0.02539, -0.03906, -0.003906, 0.02148, 0.03027, -0.02832, 0.11523, -0.0381, -0.0664, -0.1133, 0.04004, -0.01855, -0.000977, 0.0371, -0.01465, -0.01172, -0.01074, -0.006836, -0.02539, 0.02832, 0.007812, 0.0654, 0.03223, 0.0586, -0.0166, -0.1074, 0.000977, -0.0635, 0.03516, -0.04688, -0.01172, 0.01563, -0.0674, 0.012695, 0.06152, -0.009766, -0.042, 0.03223, 0.04785, 0.012695, -0.0381, 0.02441, -0.0547, -0.0547, 0.004883, -0.0459, -0.0635, -0.001953, -0.01855, 0.01074, -0.004883, 0.1123, 0.03125, 0.03418, 0.03418, -0.003906, -0.02051, -0.02832, -0.02539, 0.0381, -0.0957, -0.042, -0.06055, 0.00879, 0.007812, -0.00586, 0.01074, -0.02344, 0.0928, -0.03223, -0.003906, -0.004883, -0.02441, -0.03613, 0.02734, -0.04785, -0.003906, 0.1201, -0.0908, -0.01855, -0.02637, -0.0664, 0.012695, 0.02148, -0.00293, -0.04395, 0.1328, 0.01465, -0.05664, 0.01465, -0.02148, 0.006836, 0.01074, -0.03418, -0.04297, 0.1777, -0.04004, -0.0332, 0.01953, -0.07715, -0.02246, -0.01465, 0.003906, -0.006836, 0.06934, -0.08203, -0.006836, -0.05566, 0.05273, -0.03516, 0.01367, -0.01953, -0.0381, -0.0, 0.00586, -0.01953, 0.02441, 0.02637, 0.0, 0.00586, 0.03125, 0.0498, 0.08203, -0.01855, -0.006836, 0.009766, -0.01367, -0.007812, 0.009766, -0.02344, -0.0654, 0.251, -0.02441, -0.1299, -0.0371, -0.0381, -0.006836, 0.012695, 0.02539, 0.01758, 0.0781, 0.042, -0.02441, 0.00586, -0.01172, -0.009766, -0.006836, 0.02246, 0.00293, -0.08496, -0.000977, 0.02148, 0.01563, 0.03027, -0.01367, -0.00293, -0.009766, -0.001953, 0.00879, -0.04492, -0.012695, 0.0332, 0.03613, -0.02051, 0.007812, -0.05273, 0.009766, -0.0762, -0.04102, 0.01953, 0.02051, -0.02734, -0.00293, -0.02734, 0.01074, 0.003906, -0.2109, -0.02637, 0.0781, 0.01172, 0.0547, 0.01758, -0.03418, -0.01172, 0.02637, -0.0967, -0.04492, 0.01855, -0.03027, 0.01074, 0.01563, 0.003906, 0.007812, -0.02441, -0.03125, 0.02441, -0.000977, -0.0332, 0.00586, 0.02832, -0.03125, -0.03516, 0.00879, -0.0625, -0.02246, 0.08496, -0.01172, 0.01465, 0.04102, 0.02148, -0.02539, -0.000977, -0.1318, 0.06934, 0.05957, -0.04492, 0.01758, -0.01074, -0.01953, 0.004883, -0.03516, 0.03516, -0.009766, 0.03906, -0.06055, 0.001953, 0.04102, 0.009766, -0.02051, 0.004883, 0.05078, -0.0381, -0.02637, -0.01758, -0.0381, -0.01563, -0.04785, -0.02637, 0.00293, 0.05566, -0.06152, -0.004883, 0.0166, -0.04004, -0.0381, 0.03906, -0.01758, -0.009766, 0.1035, -0.000977, -0.02539, -0.042, -0.08496, 0.000977, -0.02441, 0.02051, 0.03516, 0.004883, -0.02441, -0.007812, 0.02637, 0.02051, -0.006836, -0.04883, -0.08105, -0.003906, -0.02441, -0.08984, -0.03027, 0.05566, -0.06934, -0.03906, -0.01172, 0.03223, 0.03418, 0.0713, 0.04785, -0.012695, -0.04297, 0.02637, 0.02344, -0.03027, -0.04297, -0.00586, -0.1113, -0.02344, 0.06445, 0.0928, 0.0703, 0.02148, 0.01758, -0.000977, -0.02539, 0.0791, -0.1084, -0.001953, -0.04395, 0.01074, -0.03125, -0.01172, -0.04492, 0.0166, -0.10156, 0.10547, 0.0586, -0.01855, 0.02148, 0.02148, -0.003906, -0.004883, 0.0, -0.01367, 0.04297, 0.05176, -0.006836, -0.0459, 0.006836, 0.03223, -0.0459, -0.02539, -0.09375, 0.04395, -0.02441, -0.007812, 0.02246, -0.03418, 0.01563, -0.0586, -0.006836, 0.001953, 0.0674, -0.003906, -0.00293, 0.0742, -0.0332, 0.001953, 0.00879, -0.009766, 0.07227, -0.0537, 0.04004, 0.07715, 0.01074, 0.0547, 0.01758, 0.012695, -0.03516, -0.04102, -0.0742, -0.06445, -0.05566, -0.03516, -0.003906, -0.0332, 0.1074, 0.03906, 0.02246, 0.03418, -0.05273, 0.001953, 0.02148, 0.000977, 0.02246, 0.02832, 0.03125, 0.05078, -0.06055, 0.004883, 0.00879, -0.0791, -0.00879, -0.03418, 0.0635, -0.02344, 0.04492, 0.1807, 0.009766, 0.01953, 0.0166, 0.004883, 0.00293, 0.05566, 0.0371, -0.01563, 0.1074, 0.02832, 0.02441, 0.01172, 0.03027, -0.0996, 0.00879, -0.04004, 0.02148, 0.1631, 0.006836, -0.02441, 0.001953, -0.00293, 0.0498, -0.0918, -0.04883, -0.03027, -0.1133, 0.00879, -0.0498, 0.03223, 0.012695, 0.006836, 0.009766, -0.000977, -0.0381, -0.01953, 0.02441, -0.07324, -0.02637, -0.02539, 0.03418, 0.04004, 0.04688, 0.007812, -0.00586, -0.02441, -0.02246, -0.05566, -0.01758, -0.01074, 0.0801, -0.04883, 0.0547, -0.02734, -0.001953, 0.04297, 0.012695, -0.0293, -0.00586, -0.03613, 0.0459, -0.03906, -0.000977, 0.007812, -0.04785, 0.01465, -0.02441, 0.03223, -0.01855, -0.02344, -0.01074, -0.09863, -0.0, -0.0537, -0.06152, -0.02832, 0.00586, -0.0742, -0.0635, 0.01074, -0.0537, -0.01563, -0.0586, -0.01172, -0.01465, -0.0, -0.01465, -0.000977, -0.007812, 0.01172, -0.03125, 0.00586, 0.01074, 0.00879, -0.02344, -0.1758, -0.0713, -0.00879, -0.09375, 0.03125, 0.01563, -0.00293, -0.03125, -0.01367, 0.02637, -0.04395, 0.02441, -0.08984, -0.03027, -0.01953, -0.04492, -0.01563, -0.04883, -0.042, 0.01563, 0.00879, 0.00879, 0.03125, 0.02246, 0.003906, 0.03613, 0.003906, -0.04785, 0.04395, -0.02637, -0.1162, -0.012695, -0.0635, -0.006836, 0.00293, -0.02637, 0.03223, -0.02637, -0.02051, 0.05078, 0.0537, 0.004883, 0.001953, 0.04492, 0.01074, 0.006836, -0.000977, -0.00293, 0.0293, 0.03906, -0.006836, -0.01367, 0.01074, 0.01465, 0.02441, 0.00293, 0.01172, -0.0928, 0.00293, 0.05957, 0.000977, -0.02734, -0.001953, 0.0742, -0.0166, 0.03613, 0.0293, -0.0381, 0.03418, -0.06055, 0.012695, 0.00586, -0.01758, -0.0967, 0.03223, -0.06152, -0.02539, 0.0332, -0.03613, 0.01465, -0.04102, -0.00586, 0.01855, -0.02734, 0.0166, -0.007812, -0.04492, -0.00293, 0.007812, 0.01074, -0.04883, 0.11035, -0.04883, -0.03906, 0.006836, 0.03027, 0.02344, 0.003906, 0.01563, -0.042, -0.0166, 0.01563, -0.02441, 0.02637, -0.03516, 0.02051, 0.0547, -0.003906, 0.08984, -0.003906, 0.02246, -0.05566, 0.0752, 0.0166, 0.03125, -0.0166, 0.0801, -0.05078, 0.000977, -0.03613, -0.01758, -0.01465, -0.05176, -0.007812, -0.004883, -0.01172, -0.07715, 0.02734, -0.0664, -0.0801, -0.009766, -0.02344, 0.02246, -0.03418, -0.03223, -0.05078, 0.00879, -0.04102, 0.012695, -0.03516, 0.02637, 0.1035, -0.00293, 0.02441, -0.02344, -0.000977, -0.02148, -0.02246, -0.02539, 0.007812, 0.0713, 0.01855, -0.003906, -0.1084, -0.04102, -0.02539, -0.10156, -0.042, -0.000977, 0.1895, 0.01172, -0.05273, -0.05176, -0.05566, -0.03223, -0.01074, -0.02539, 0.006836, 0.09863, 0.03906, 0.02051, 0.02734, 0.02148, -0.042, 0.02246, 0.0, 0.0293, -0.07324, 0.02051, 0.02832, 0.01367, 0.004883, -0.01367, 0.000977, 0.01953, 0.01855, 0.0586, -0.009766, -0.00293, -0.01855, 0.00879, -0.009766, -0.03906, -0.01855, 0.001953, 0.042, -0.006836, 0.006836, 0.1084, -0.009766, 0.01758, 0.04688, -0.01953, -0.06152, -0.1533, -0.01367, -0.01953, 0.02832, 0.004883, -0.007812, 0.02637, 0.02051, 0.003906, -0.0498, -0.0, -0.01172, 0.00879, -0.001953, -0.004883, -0.003906, -0.004883, -0.0293, 0.04297, -0.004883, -0.02637, 0.0547, -0.006836, -0.03125, -0.0371, 0.006836, 0.012695, -0.0996, 0.0166, -0.0166, 0.0537, -0.004883, 0.083, 0.06445, -0.00879, -0.02344, -0.126, 0.0166, 0.01758, 0.05664, 0.00293, -0.02832, -0.01367, 0.02539, -0.0498, -0.0781, -0.02734, -0.00879, -0.00879, -0.00293, -0.02832, 0.0166, 0.007812, 0.03027, -0.0791, 0.009766, -0.02539, 0.0547, 0.009766, -0.02832, 0.000977, 0.02344, 0.02051, -0.02734, -0.004883, -0.01953, -0.04883, 0.04395, 0.012695, -0.0918, 0.012695, 0.04297, 0.1289, 0.007812, -0.02832, -0.08984, -0.03418, -0.01465, -0.02539, -0.03516, 0.01074, 0.1426, -0.04395, -0.009766, 0.03027, 0.01953, -0.0166, 0.0381, -0.0166, 0.03613, 0.02344, -0.00586, 0.01074, -0.1357, -0.003906, -0.0332, -0.05078, -0.02246, -0.000977, 0.1377, -0.003906, 0.001953, 0.06836, -0.03223, -0.01563, 0.0625, -0.05566, -0.03418, -0.06445, 0.03027, 0.000977, -0.00879, -0.01953, -0.04688, -0.02637, -0.04395, -0.007812, -0.007812, -0.03418, 0.02246, 0.001953, 0.02148, 0.03027, -0.0166, 0.01855, 0.007812, 0.01758, -0.0, -0.007812, 0.01465, 0.01172, -0.01172, -0.00586, 0.03906, -0.02441, -0.0547, -0.04688, -0.00586, 0.01855, -0.00879, 0.0293, -0.007812, 0.003906, -0.03027, -0.03125, 0.02441, 0.02148, -0.03418, 0.007812, 0.01172, -0.003906, -0.01758, 0.007812, 0.06836, 0.04395, -0.04492, -0.0586, -0.02344, 0.001953, -0.0166, 0.00586, 0.0879, 0.08984, 0.007812, -0.02637, -0.1553, 0.03223, -0.003906, -0.0869, 0.01465, -0.02539, 0.126, -0.004883, 0.01074, -0.01953, -0.00879, -0.01953, -0.04297, -0.04883, 0.02051, 0.1357, 0.04297, -0.006836, 0.0166, 0.03027, -0.01367, 0.0293, 0.01465, -0.01172, -0.0664, -0.04297, 0.01074, 0.02539, -0.001953, -0.04004, -0.05078, -0.04883, -0.03418, -0.00293, -0.03223, 0.00293, -0.0537, -0.02051, -0.04102, -0.04785, -0.0547, 0.01855, 0.1328, 0.04102, 0.03418, -0.0791, 0.01367, 0.02441, -0.012695, 0.01074, -0.042, 0.1123, -0.042, -0.02539, -0.0166, -0.006836, -0.02441, -0.0381, 0.01074, 0.01367, 0.0586, -0.04297, -0.01465, 0.01758, -0.03906, 0.03027, 0.06934, -0.02734, 0.02344, 0.0908, -0.02637, -0.003906, -0.006836, -0.00293, 0.02148, -0.00293, -0.06152, 0.0332, -0.05176, 0.006836, 0.01074, 0.007812, -0.03223, 0.05957, -0.0801, 0.000977, -0.004883, -0.05273, 0.01855, -0.00879, 0.05957, -0.07227, -0.03223, 0.0293, -0.04297, -0.009766, -0.007812, -0.04102, -0.01465, 0.0547, 0.02148, -0.02246, -0.0869, -0.01563, 0.03613, -0.02344, 0.01563, -0.012695, -0.0381, -0.0371, 0.001953, -0.02734, -0.00879, -0.01172, 0.05566, -0.01563, 0.003906, 0.00293, -0.0166, -0.01074, 0.02734, -0.0166, -0.006836, 0.02051, 0.001953, -0.0166, -0.0879, 0.0, -0.02637, -0.01172, -0.009766, 0.08105, -0.04785, 0.02148, 0.004883, -0.05176, -0.01367, -0.02441, -0.03418, -0.01953, -0.07324, -0.0752, 0.07324, 0.009766, -0.3076, 0.03613, 0.00293, -0.329, -0.001953, -0.01855, -0.2373, 0.04395, -0.03906, -0.04004, -0.01465, -0.01074, -0.083, 0.02246, 0.03906, -0.0166, 0.01465, 0.03613, 0.0547, 0.0537, 0.06152, -0.04395, 0.02832, 0.01563, -0.03906, 0.03223, 0.003906, -0.02344, -0.01074, 0.012695, -0.04297, -0.01563, -0.01172, -0.012695, -0.004883, 0.03418, -0.0791, -0.012695, 0.03516, -0.127, -0.01953, 0.01172, -0.084, -0.01367, 0.007812, 0.05566, 0.04395, 0.01953, -0.05273, -0.0713, 0.01465, -0.000977, -0.03223, -0.05566, -0.0371, -0.01367, -0.05078, -0.01172, 0.007812, -0.0371, 0.02051, 0.007812, 0.00293, -0.006836, -0.03516, -0.03418, 0.006836, 0.004883, -0.01367, 0.05762, -0.01465, -0.00586, 0.04395, 0.02832, -0.007812, 0.003906, 0.00293, -0.00879, -0.01172, -0.03125, 0.02832, -0.1436, -0.001953, -0.0166, -0.0674, 0.03906, 0.02734, -0.11523, 0.03027, 0.01367, 0.01758, 0.01855, 0.01465, -0.07227, -0.05664, -0.03027, -0.02832, -0.0, -0.012695, 0.01953, -0.001953, -0.0703, -0.0625, 0.02637, 0.006836, 0.00879, 0.02539, 0.03613, 0.01758, 0.04102, 0.01074, 0.01074, -0.000977, 0.012695, -0.0459, -0.02539, 0.01465, 0.0371, -0.0, 0.000977, -0.01855, 0.02148, 0.0381, 0.0381, 0.02734, -0.03125, 0.05176, -0.006836, 0.000977, 0.04688, -0.01172, 0.02832, 0.04883, -0.03613, -0.00586, 0.09375, -0.02051, -0.01074, 0.03027, -0.007812, 0.01953, -0.01074, 0.001953, -0.0293, 0.06152, -0.004883, -0.0459, -0.04492, 0.0, -0.06445, -0.03125, -0.0674, -0.001953, 0.04785, 0.01758, 0.01074, 0.001953, -0.003906, 0.01465, -0.02637, 0.00293, 0.02148, -0.009766, 0.02539, 0.04883, -0.01953, -0.01855, -0.0332, -0.02246, -0.03027, 0.0166, 0.02051, 0.0166, -0.01465, -0.01855, -0.00586, 0.00293, 0.05078, -0.06836, -0.007812, -0.169, -0.01074, 0.02539, 0.02246, 0.01758, 0.00293, -0.07227, 0.01367, -0.02734, 0.01855, -0.007812, 0.003906, -0.000977, -0.04297, 0.007812, 0.00293, -0.01758, 0.012695, -0.02832, 0.02344, 0.0674, -0.01953, -0.03906, 0.01074, -0.006836, 0.01074, -0.009766, 0.00879, 0.0459, -0.009766, 0.03125, 0.000977, -0.03906, -0.012695, 0.00293, 0.0371, -0.03906, -0.0742, 0.2373, 0.12305, -0.292, 0.007812, -0.0381, 0.02148, -0.02637, 0.007812, -0.03613, 0.05273, 0.009766, -0.0547, 0.009766, 0.01465, -0.007812, -0.01855, 0.006836, 0.001953, -0.0879, 0.003906, 0.05566, -0.03516, -0.00293, 0.04883, -0.003906, -0.012695, 0.0166, -0.01465, -0.042, 0.0654, 0.02441, -0.03027, 0.01953, -0.00586, 0.00586, 0.02148, -0.04785, -0.02539, 0.0332, 0.03027, -0.01465, 0.009766, 0.00586, -0.05566, -0.03516, -0.05078, -0.1533, 0.05664, 0.01563, -0.009766, -0.01758, -0.012695, -0.03516, 0.04688, -0.02441, -0.0752, -0.00293, -0.03027, -0.02734, -0.01563, 0.003906, 0.0166, -0.00879, -0.0293, -0.03906, 0.001953, -0.004883, 0.0166, -0.01172, 0.01172, 0.00586, 0.01855, -0.02539, 0.04688, 0.03027, -0.02148, 0.012695, -0.001953, -0.006836, 0.00879, 0.0293, -0.02246, 0.10156, 0.09863, -0.0166, -0.0869, 0.003906, -0.000977, 0.02344, 0.000977, 0.0664, 0.0664, -0.05078, 0.00879, -0.000977, 0.001953, -0.01172, -0.012695, 0.000977, -0.07227, 0.009766, 0.03027, 0.000977, -0.01172, 0.012695, 0.01172, 0.012695, -0.04395, 0.004883, 0.02148, -0.009766, 0.000977, -0.01074, 0.02441, 0.01563, -0.02441, 0.0166, 0.11426, -0.01465, -0.0498, -0.01758, -0.05078, 0.03613, 0.006836, 0.000977, -0.01855, 0.0635, 0.00586, -0.04102, -0.01953, 0.001953, -0.03125, -0.01172, -0.0166, 0.02344, 0.02344, -0.04102, -0.0293, -0.007812, -0.01855, 0.0166, -0.000977, -0.0, 0.00293, 0.0967, 0.000977, -0.05078, -0.004883, 0.006836, -0.03613, -0.01074, -0.05078, 0.03906, -0.0713, -0.04688, 0.0293, 0.0547, -0.0166, 0.0752, 0.01367, 0.02344, -0.03223, 0.06445, -0.007812, -0.0928, -0.06055, -0.01563, 0.0293, 0.02539, -0.04297, -0.05566, -0.01074, 0.006836, 0.11035, -0.01172, -0.07227, 0.0459, -0.01758, 0.00293, 0.01758, -0.009766, 0.05176, 0.05176, -0.02637, -0.012695, -0.02539, -0.01172, -0.00586, -0.01855, -0.0332, -0.0869, -0.04785, 0.0664, -0.01367, -0.02637, 0.02539, 0.00879, 0.02441, 0.0781, 0.01563, 0.006836, 0.01758, -0.0371, -0.02539, 0.01953, -0.003906, -0.02441, 0.00293, 0.02246, 0.05273, -0.004883, -0.04004, -0.04492, -0.03418, -0.042, -0.007812, -0.042, -0.04297, -0.02832, -0.03223, -0.02441, -0.006836, 0.02637, 0.0498, 0.04785, 0.1426, 0.1172, -0.06055, -0.01563, -0.02344, -0.01074, -0.02344, 0.01855, 0.03516, -0.07227, -0.02246, 0.0791, 0.003906, 0.08105, 0.03223, -0.012695, 0.00293, -0.00586, 0.05078, 0.02539, 0.006836, -0.0371, -0.00293, -0.01465, 0.02051, -0.001953, -0.06836, 0.1904, 0.0791, -0.1621, 0.04102, 0.01367, 0.01172, 0.00586, -0.04297, 0.0166, 0.0381, -0.01074, -0.01855, -0.01758, -0.01465, 0.06055, 0.01367, -0.03027, -0.05273, -0.05664, 0.03516, 0.0498, -0.003906, -0.003906, 0.02051, -0.004883, 0.02246, -0.001953, -0.02734, 0.05078, 0.03613, -0.06055, -0.03223, -0.001953, -0.04297, -0.04883, 0.05566, -0.2725, 0.0459, 0.2666, -0.000977, -0.01758, -0.02637, -0.004883, 0.0166, -0.01465, -0.0293, -0.00586, 0.00879, 0.007812, 0.02539, 0.00879, 0.03906, 0.02246, 0.00586, 0.0371, -0.01563, -0.03125, -0.02051, -0.012695, -0.02441, -0.000977, -0.007812, -0.001953, 0.03906, -0.0166, -0.04688, -0.004883, -0.012695, 0.04883, 0.00879, 0.004883, -0.02539, 0.0674, 0.004883, -0.0498, -0.02246, -0.02344, -0.02051, -0.001953, -0.07227, -0.05176, 0.012695, -0.03906, -0.09375, 0.000977, -0.01855, -0.02051, -0.05078, -0.00586, 0.001953, -0.042, -0.00879, 0.004883, 0.03125, 0.01367, 0.04102, 0.02148, -0.03027, -0.02344, 0.04492, -0.03906, -0.0703, 0.001953, -0.03223, -0.009766, 0.03418, 0.02441, 0.004883, 0.05664, 0.04004, -0.02148, -0.01465, -0.009766, 0.000977, 0.012695, -0.00293, -0.01367, 0.0703, -0.01758, -0.04297, 0.01367, 0.05176, 0.0166, -0.00586, 0.0332, -0.0371, -0.04395, 0.06445, 0.03125, -0.00293, 0.01758, 0.00586, 0.02637, -0.02734, 0.000977, 0.05078, 0.02344, -0.05957, -0.01074, -0.02051, -0.01563, -0.03418, 0.000977, -0.03125, -0.004883, 0.0166, 0.03906, 0.01758, -0.01855, -0.0381, -0.04102, 0.01758, 0.06055, -0.02148, 0.04297, 0.1084, 0.06934, -0.0459, 0.02539, -0.0625, 0.03516, 0.01367, -0.04785, 0.0918, 0.0947, -0.03418, -0.01563, 0.01172, 0.01563, -0.02344, 0.02051, 0.03125, 0.012695, 0.0166, 0.01074, -0.03613, -0.003906, -0.02441, -0.007812, 0.04004, -0.0537, 0.003906, 0.04688, -0.0381, 0.006836, -0.00586, 0.02441, -0.03418, 0.01465, 0.006836, -0.1406, -0.05957, 0.05762, -0.004883, 0.0664, -0.0654, 0.01367, 0.01563, -0.01563, 0.01465, 0.0703, 0.0498, -0.03906, -0.0664, 0.01563, -0.00293, 0.012695, 0.02344, -0.10645, -0.0586, 0.06055, 0.0293, -0.01465, -0.04297, -0.02832, -0.02148, -0.02246, 0.01074, -0.03223, -0.01172, 0.0, 0.00293, 0.004883, -0.03906, 0.01465, 0.06152, 0.02734, 0.02832, -0.05078, -0.0293, 0.01953, 0.009766, -0.003906, 0.004883, -0.001953, 0.0996, 0.03418, 0.02246, -0.02344, -0.003906, -0.03613, 0.01758, 0.02637, -0.01367, 0.00293, -0.0166, -0.0166, 0.02148, 0.04004, 0.04004, -0.02441, -0.02637, -0.04102, -0.06836, -0.05273, 0.00586, 0.0, 0.00293, 0.02148, 0.05566, 0.02148, -0.04102, 0.1475, 0.09863, -0.00879, -0.02344, -0.02539, 0.0498, 0.001953, -0.06055, 0.0586, 0.1035, 0.0166, 0.007812, -0.0879, -0.05078, 0.01563, 0.000977, -0.01953, -0.0293, 0.05273, 0.11523, -0.009766, -0.02344, -0.02637, -0.02344, 0.03027, 0.006836, -0.125, 0.02246, 0.1533, 0.0166, 0.001953, 0.01563, 0.01563, -0.04102, -0.02246, 0.02734, 0.004883, 0.01855, 0.02539, -0.01563, -0.03223, -0.012695, 0.001953, -0.05176, 0.04395, 0.006836, -0.1436, 0.0381, -0.03516, 0.0537, 0.006836, -0.01563, -0.02246, -0.0996, -0.000977, -0.001953, -0.0537, -0.02539, -0.01953, 0.01465, -0.03125, 0.006836, 0.0625, 0.1172, -0.06934, -0.006836, 0.0498, 0.02344, 0.01074, 0.006836, 0.0371, 0.01367, -0.0498, -0.007812, -0.004883, 0.003906, -0.02148, 0.01855, -0.05273, -0.03613, 0.0674, 0.1416, 0.10156, -0.009766, -0.07227, 0.012695, 0.02637, 0.0371, -0.006836, -0.02832, 0.05762, -0.01563, -0.0459, -0.04395, -0.01758, -0.01953, 0.02539, 0.01172, -0.00586, 0.00293, -0.02051, 0.009766, -0.03613, 0.0381, -0.004883, -0.04395, -0.06836, -0.001953, -0.0869, 0.166, -0.02051, -0.000977, -0.05566, -0.007812, 0.0166, 0.00293, -0.0586, 0.0674, 0.012695, -0.02637, 0.02051, -0.01758, 0.000977, -0.004883, 0.00586, 0.03027, -0.06152, -0.0537, -0.001953, -0.05176, 0.0, 0.042, 0.04297, 0.042, -0.007812, -0.0547, 0.08594, -0.01172, -0.006836, 0.02344, -0.02246, 0.03613, 0.009766, 0.02637, -0.1426, -0.06445, 0.01074, 0.06934, 0.02832, 0.03613, 0.04004, 0.05176, 0.03125, 0.0371, 0.04688, -0.01074, -0.0166, -0.0166, -0.007812, -0.02539, 0.003906, 0.03223, -0.02246, -0.0762, -0.0332, 0.009766, -0.04102, -0.03418, -0.05273, -0.00879, 0.0166, 0.009766, 0.03613, -0.01758, -0.000977, 0.04785, 0.03223, 0.02734, -0.00879, -0.0635, 0.0547, 0.0947, -0.0293, 0.000977, -0.02148, 0.03125, 0.02051, -0.0547, -0.05078, 0.0801, 0.0752, 0.001953, 0.03516, -0.0498, 0.00586, 0.04102, -0.0293, -0.0332, -0.0781, 0.0869, -0.0332, -0.02246, 0.03516, -0.012695, -0.0332, 0.0537, 0.02344, -0.006836, 0.0762, -0.03516, -0.02734, -0.003906, 0.01563, -0.02344, 0.04395, 0.00293, -0.0293, -0.0586, -0.01953, -0.03223, -0.0166, -0.02246, -0.04102, 0.01758, 0.00586, 0.1348, -0.0947, 0.02051, 0.01855, -0.0918, 0.00879, -0.00293, -0.006836, 0.0293, -0.1348, -0.1504, -0.01855, 0.0801, 0.003906, 0.01953, -0.007812, 0.007812, -0.03613, 0.04688, 0.0762, -0.003906, -0.0498, 0.02148, -0.02734, -0.02344, -0.01367, -0.083, -0.05762, 0.02539, -0.0498, -0.03418, -0.02051, 0.00879, 0.02246, 0.04102, 0.00879, 0.03418, -0.084, -0.000977, -0.00879, -0.01855, -0.01074, 0.01953, -0.03223, 0.01953, 0.0, 0.0791, -0.03027, 0.003906, 0.0664, 0.02246, 0.02051, 0.03418, 0.02344, -0.001953, 0.000977, -0.03027, -0.009766, 0.0635, 0.0293, 0.00879, -0.009766, 0.0332, 0.1289, 0.1338, 0.01563, 0.001953, -0.04785, -0.01563, -0.04395, -0.0293, -0.07324, 0.10547, 0.04395, 0.0166, -0.0537, -0.00586, 0.01172, 0.003906, 0.00293, -0.04688, -0.1348, 0.0293, -0.0, 0.02441, -0.0459, -0.00293, -0.03027, -0.0371, 0.003906, 0.03613, -0.1748, 0.006836, 0.03125, 0.0625, -0.001953, -0.000977, 0.02734, -0.007812, -0.02441, 0.00879, -0.01367, -0.02539, -0.02637, 0.012695, 0.02246, -0.04297, 0.0625, 0.007812, -0.00879, -0.05176, 0.1211, -0.02344, -0.04492, -0.083, -0.03906, -0.004883, -0.03516, -0.03906, -0.02539, 0.0459, 0.00293, -0.08594, 0.06055, -0.004883, 0.02051, -0.02051, -0.02051, 0.0664, -0.083, -0.007812, 0.007812, -0.00293, -0.01465, -0.06152, -0.012695, -0.1582, -0.08887, -0.01758, -0.0762, 0.04688, -0.00879, 0.00879, -0.004883, -0.04395, -0.04883, -0.000977, 0.006836, -0.01953, -0.0293, 0.003906, -0.03027, 0.003906, -0.08887, -0.009766, 0.0381, 0.03418, -0.03418, -0.01172, -0.03125, 0.01758, -0.01465, -0.03613, 0.01563, -0.0332, 0.10156, 0.04102, -0.0879, -0.03613, -0.08496, -0.0381, 0.03223, -0.03027, 0.004883, -0.012695, -0.007812, 0.02832, 0.01758, -0.0703, -0.00293, 0.01758, 0.01758, 0.0459, 0.0664, 0.02246, -0.006836, -0.03906, 0.02051, 0.01563, -0.03223, 0.02344, 0.01465, 0.042, 0.0801, 0.009766, -0.003906, 0.006836, -0.0166, -0.02051, -0.01172, -0.02539, -0.0654, 0.004883, 0.001953, 0.03027, 0.0, 0.004883, -0.012695, -0.03516, 0.01465, -0.00586, 0.004883, 0.01465, -0.001953, 0.03027, 0.01953, -0.09766, -0.0869, 0.009766, 0.0537, 0.001953, -0.01563, -0.007812, -0.03418, 0.009766, -0.0664, 0.01465, 0.0293, 0.009766, 0.03125, 0.01172, 0.01953, 0.0547, -0.01172, 0.04688, -0.01855, 0.01367, -0.02441, -0.04297, 0.02832, 0.06055, -0.01074, -0.003906, 0.000977, -0.05957, -0.042, -0.0869, 0.02246, 0.00586, -0.02832, 0.007812, 0.04492, -0.03125, -0.01563, 0.04492, 0.00879, -0.00586, -0.04004, -0.04102, 0.06445, -0.0742, -0.03125, 0.0166, -0.012695, 0.10156, -0.05957, 0.02832, 0.03613, 0.0371, 0.0, 0.009766, -0.007812, -0.03125, 0.02441, -0.01855, -0.05664, 0.02148, 0.01758, -0.0537, -0.0293, -0.01953, 0.08496, -0.004883, -0.0967, -0.07324, -0.006836, -0.03223, -0.08496, -0.11523, -0.1406, 0.007812, -0.1035, -0.02246, -0.00586, -0.00879, -0.02441, -0.00586, -0.02441, 0.03613, 0.0459, -0.01465, 0.0381, 0.02441, 0.001953, -0.04297, -0.003906, 0.05273, 0.03223, -0.03125, -0.003906, 0.01855, -0.05176, -0.1602, -0.00293, 0.02637, -0.0908, 0.006836, -0.03125, 0.08984, -0.003906, -0.02246, -0.02441, -0.03125, -0.02539, -0.02637, -0.042, -0.01074, 0.1006, 0.04492, 0.02344, -0.1084, -0.006836, 0.02832, -0.0762, 0.001953, 0.004883, 0.06152, -0.0928, -0.02246, -0.1875, 0.003906, 0.00293, -0.05664, 0.0371, 0.02246, 0.0674, -0.0459, 0.05664, 0.125, 0.07227, -0.0586, 0.0654, -0.04492, -0.0166, -0.06152, -0.0332, 0.007812, 0.01172, -0.02539, -0.03027, 0.05566, 0.01367, -0.03418, -0.01855, -0.00293, -0.00586, 0.02734, -0.02832, -0.0664, 0.02734, -0.0498, -0.02734, 0.126, -0.03613, 0.000977, 0.05957, 0.03027, -0.01953, -0.0635, -0.00879, 0.001953, -0.1514, -0.03418, 0.012695, 0.11523, -0.03027, -0.02051, 0.0459, -0.0459, 0.0332, -0.01074, -0.03516, 0.0381, 0.05664, 0.0, -0.02734, 0.0293, 0.004883, -0.0664, -0.04395, -0.012695, 0.000977, -0.001953, 0.01855, 0.0, -0.02344, -0.00586, -0.01172, 0.01465, 0.01465, -0.01172, -0.007812, -0.003906, -0.02832, -0.0166, 0.01367, 0.00586, 0.03027, -0.01953, -0.0293, 0.04688, 0.001953, -0.0166, 0.0674, 0.04004, 0.04492, -0.04102, -0.02148, 0.009766, 0.02344, -0.006836, 0.00879, -0.01172, -0.02148, -0.01367, -0.0498, -0.03613, 0.0166, -0.03125, 0.02051, 0.004883, -0.02051, -0.02539, 0.000977, 0.0332, -0.009766, -0.04395, -0.1455, -0.03906, -0.03516, -0.1846, -0.02734, 0.01465, 0.2109, 0.04297, -0.02441, 0.01074, 0.004883, 0.0166, -0.06445, -0.007812, 0.01758, 0.01367, 0.004883, -0.01172, -0.09375, -0.04785, 0.000977, -0.1211, -0.09863, 0.0381, 0.2705, -0.02344, 0.03418, 0.1543, 0.000977, 0.06152, 0.1865, -0.0293, -0.01074, -0.374, -0.0625, -0.02441, -0.00586, 0.01074, -0.00586, -0.0742, -0.01367, -0.01953, 0.04004, -0.012695, -0.0166, -0.007812, 0.02344, -0.01465, -0.02246, -0.006836, -0.007812, -0.1094, -0.0166, 0.0166, 0.004883, -0.0166, -0.03223, -0.004883, -0.00879, 0.02734, 0.00586, 0.007812, 0.007812, -0.04004, -0.01074, 0.000977, -0.001953, -0.01758, -0.07227, -0.04785, 0.01074, -0.0, -0.0166, -0.0166, -0.01563, -0.003906, 0.006836, 0.00586, 0.03223, -0.04492, -0.00879, 0.02734, 0.007812, -0.003906, 0.01465, 0.003906, 0.01172, 0.0625, -0.00879, 0.01367, -0.009766, -0.001953, -0.02637, -0.05957, 0.01758, -0.0713, -0.126, -0.02832, 0.01172, 0.04492, -0.000977, 0.01953, 0.0762, 0.0293, 0.01953, 0.083, 0.02734, -0.006836, 0.007812, 0.004883, 0.0293, 0.02441, 0.012695, -0.001953, 0.03516, 0.006836, -0.02832, -0.000977, 0.001953, -0.00879, -0.03027, -0.001953, -0.007812, -0.09863, -0.02441, 0.02734, -0.00293, 0.001953, 0.006836, -0.0371, -0.03027, 0.001953, 0.05957, 0.02051, -0.007812, -0.004883, 0.0, 0.003906, 0.02148, 0.001953, 0.03418, 0.11426, 0.02832, -0.03613, -0.01465, -0.00293, -0.03613, -0.03516, 0.001953, 0.01563, 0.07227, -0.004883, -0.004883, -0.01563, 0.0, -0.01758, -0.003906, 0.02637, -0.0166, -0.0, 0.003906, -0.0, -0.0293, 0.01563, 0.0293, 0.02344, 0.01953, 0.00293, 0.05664, 0.01367, 0.004883, -0.001953, -0.01953, -0.02051, -0.01172, -0.001953, -0.0166, -0.01367, -0.007812, 0.003906, 0.02246, -0.01074, -0.02539, 0.02539, 0.007812, 0.02148, -0.06836, 0.0166, 0.00586, -0.007812, -0.00293, 0.01758, 0.01758, 0.04297, 0.004883, -0.0664, -0.006836, 0.006836, -0.012695, 0.006836, 0.01758, -0.006836, 0.012695, 0.012695, 0.07715, 0.01953, 0.000977, -0.01074, -0.000977, -0.012695, -0.02246, -0.001953, -0.012695, -0.08105, -0.00586, -0.001953, 0.01172, -0.01563, 0.01074, 0.03223, -0.01172, 0.01074, -0.001953, 0.0166, -0.00879, 0.00879, 0.01172, -0.006836, -0.006836, 0.04102, 0.006836, -0.0635, 0.009766, 0.1074, -0.0293, -0.03906, 0.01172, -0.004883, 0.01465, -0.02539, -0.01953, 0.04395, -0.01758, -0.03418, 0.03613, -0.0166, -0.02051, -0.0547, 0.02539, -0.02344, -0.0625, 0.04102, -0.0547, -0.0371, -0.1338, -0.0967, -0.01465, -0.042, -0.0547, -0.0332, -0.01172, -0.03223, -0.05762, -0.06445, -0.05273, 